{"learner":{"attributes":{},"feature_names":["oil_mw","coal_mw","gas_mw","nuclear_mw","wind_mw","solar_mw","bioenergy_mw","wind_offshore_mw","wind_onshore_mw","exchange_uk_mw","exchange_spain_mw","exchange_italy_mw","exchange_switzerland_mw","exchange_germany_belgium_mw","year","month","day","weekday","season"],"feature_types":["float","float","float","float","float","float","float","float","float","float","float","float","float","float","int","int","int","int","int"],"gradient_booster":{"model":{"gbtree_model_param":{"num_parallel_tree":"1","num_trees":"200"},"iteration_indptr":[0,1,2,3,4,5,6,7,8,9,10,11,12,13,14,15,16,17,18,19,20,21,22,23,24,25,26,27,28,29,30,31,32,33,34,35,36,37,38,39,40,41,42,43,44,45,46,47,48,49,50,51,52,53,54,55,56,57,58,59,60,61,62,63,64,65,66,67,68,69,70,71,72,73,74,75,76,77,78,79,80,81,82,83,84,85,86,87,88,89,90,91,92,93,94,95,96,97,98,99,100,101,102,103,104,105,106,107,108,109,110,111,112,113,114,115,116,117,118,119,120,121,122,123,124,125,126,127,128,129,130,131,132,133,134,135,136,137,138,139,140,141,142,143,144,145,146,147,148,149,150,151,152,153,154,155,156,157,158,159,160,161,162,163,164,165,166,167,168,169,170,171,172,173,174,175,176,177,178,179,180,181,182,183,184,185,186,187,188,189,190,191,192,193,194,195,196,197,198,199,200],"tree_info":[0,0,0,0,0,0,0,0,0,0,0,0,0,0,0,0,0,0,0,0,0,0,0,0,0,0,0,0,0,0,0,0,0,0,0,0,0,0,0,0,0,0,0,0,0,0,0,0,0,0,0,0,0,0,0,0,0,0,0,0,0,0,0,0,0,0,0,0,0,0,0,0,0,0,0,0,0,0,0,0,0,0,0,0,0,0,0,0,0,0,0,0,0,0,0,0,0,0,0,0,0,0,0,0,0,0,0,0,0,0,0,0,0,0,0,0,0,0,0,0,0,0,0,0,0,0,0,0,0,0,0,0,0,0,0,0,0,0,0,0,0,0,0,0,0,0,0,0,0,0,0,0,0,0,0,0,0,0,0,0,0,0,0,0,0,0,0,0,0,0,0,0,0,0,0,0,0,0,0,0,0,0,0,0,0,0,0,0,0,0,0,0,0,0,0,0,0,0,0,0],"trees":[{"base_weights":[-8.589341E3,-5.9434215E4,3.1778456E5,-9.710955E4,1.4598925E5,1.7830644E5,3.838089E5,-1.393251E5,-4.4747797E4,-4.083318E4,1.9586942E5,1.1394329E5,2.2895372E5,3.412149E5,2.5577229E4,-4.741143E3,-9.970627E3,1.9899355E3,-3.7047148E3,-3.4596443E3,3.0772078E3,1.1611986E4,7.893685E3,2.4233093E3,7.44041E3,4.907863E3,1.2190575E4,7.556758E3,1.7642834E4],"categories":[],"categories_nodes":[],"categories_segments":[],"categories_sizes":[],"default_left":[0,0,0,0,0,0,0,0,0,0,0,0,0,0,0,0,0,0,0,0,0,0,0,0,0,0,0,0,0],"id":0,"left_children":[1,3,5,7,9,11,13,15,17,19,21,23,25,27,-1,-1,-1,-1,-1,-1,-1,-1,-1,-1,-1,-1,-1,-1,-1],"loss_changes":[8.863724E12,3.5897784E12,5.9460865E11,8.580634E11,6.789468E11,5.540774E10,8.661028E10,5.586808E11,4.3963017E11,5.0712674E10,4.210465E10,2.2464922E10,1.331626E9,3.2972997E10,0E0,0E0,0E0,0E0,0E0,0E0,0E0,0E0,0E0,0E0,0E0,0E0,0E0,0E0,0E0],"parents":[2147483647,0,0,1,1,2,2,3,3,4,4,5,5,6,6,7,7,8,8,9,9,10,10,11,11,12,12,13,13],"right_children":[2,4,6,8,10,12,14,16,18,20,22,24,26,28,-1,-1,-1,-1,-1,-1,-1,-1,-1,-1,-1,-1,-1,-1,-1],"split_conditions":[4.500146E3,4.1451395E4,6.0295938E3,1.4949896E3,-3.4609375E3,2.2683855E3,4.533578E4,5E0,2.1718542E3,4.43435E4,7.0128125E2,2.8197916E1,4.0036E4,-1.8966667E2,2.5577229E4,-4.741143E3,-9.970627E3,1.9899355E3,-3.7047148E3,-3.4596443E3,3.0772078E3,1.1611986E4,7.893685E3,2.4233093E3,7.44041E3,4.907863E3,1.2190575E4,7.556758E3,1.7642834E4],"split_indices":[2,3,2,2,13,8,3,17,5,3,6,1,3,10,0,0,0,0,0,0,0,0,0,0,0,0,0,0,0],"split_type":[0,0,0,0,0,0,0,0,0,0,0,0,0,0,0,0,0,0,0,0,0,0,0,0,0,0,0,0,0],"sum_hessian":[5.32E2,4.61E2,7.1E1,3.9E2,7.1E1,2.4E1,4.7E1,2.15E2,1.75E2,1.5E1,5.6E1,1.2E1,1.2E1,3.8E1,9E0,1.25E2,9E1,4.5E1,1.3E2,1.2E1,3E0,2.6E1,3E1,5E0,7E0,2E0,1E1,3E0,3.5E1],"tree_param":{"num_deleted":"0","num_feature":"19","num_nodes":"29","size_leaf_vector":"1"}},{"base_weights":[-6.7968094E1,-7.13537E4,2.2623648E5,-8.8230664E4,2.3743678E5,8.96971E4,2.910414E5,-1.2875676E5,-3.2305377E4,1.7101852E5,1.7292105E4,1.8400625E5,1.12983125E4,2.5366056E5,4.62497E5,-4.476978E3,-9.620499E3,-2.8170085E3,3.9518574E3,8.866006E3,2.0699062E3,9.790226E3,2.790696E3,-1.378352E3,5.4811875E3,1.0707968E4,1.5242328E4,6.570972E3,2.3892766E4],"categories":[],"categories_nodes":[],"categories_segments":[],"categories_sizes":[],"default_left":[0,0,0,0,0,0,0,0,0,0,0,0,0,0,0,0,0,0,0,0,0,0,0,0,0,0,0,0,0],"id":1,"left_children":[1,3,5,7,9,11,13,15,17,19,-1,21,23,25,27,-1,-1,-1,-1,-1,-1,-1,-1,-1,-1,-1,-1,-1,-1],"loss_changes":[8.4855887E12,2.1055276E12,1.0887962E12,8.570853E11,9.2056584E10,3.084574E11,4.274604E11,5.3195755E11,4.3530424E11,4.9114644E9,0E0,1.78079E10,9.4736876E10,8.029156E10,8.3875594E9,0E0,0E0,0E0,0E0,0E0,0E0,0E0,0E0,0E0,0E0,0E0,0E0,0E0,0E0],"parents":[2147483647,0,0,1,1,2,2,3,3,4,4,5,5,6,6,7,7,8,8,9,9,11,11,12,12,13,13,14,14],"right_children":[2,4,6,8,10,12,14,16,18,20,-1,22,24,26,28,-1,-1,-1,-1,-1,-1,-1,-1,-1,-1,-1,-1,-1,-1],"split_conditions":[4.1451395E4,4.6939897E3,1.875E-1,1.6611771E3,4.0595834E2,7.916875E2,-8.7625E1,5E0,6.4289272E3,2.6818645E3,1.7292105E4,1.2472291E3,4.458053E4,4.6939897E3,1.6308333E2,-4.476978E3,-9.620499E3,-2.8170085E3,3.9518574E3,8.866006E3,2.0699062E3,9.790226E3,2.790696E3,-1.378352E3,5.4811875E3,1.0707968E4,1.5242328E4,6.570972E3,2.3892766E4],"split_indices":[3,2,1,2,1,6,9,17,8,5,0,10,3,2,0,0,0,0,0,0,0,0,0,0,0,0,0,0,0],"split_type":[0,0,0,0,0,0,0,0,0,0,0,0,0,0,0,0,0,0,0,0,0,0,0,0,0,0,0,0,0],"sum_hessian":[5.24E2,3.99E2,1.25E2,3.79E2,2E1,4.1E1,8.4E1,2.19E2,1.6E2,1.4E1,6E0,1.8E1,2.3E1,7.1E1,1.3E1,1.37E2,8.2E1,1.32E2,2.8E1,1.3E1,1E0,1.6E1,2E0,1.7E1,6E0,4.3E1,2.8E1,1E0,1.2E1],"tree_param":{"num_deleted":"0","num_feature":"19","num_nodes":"29","size_leaf_vector":"1"}},{"base_weights":[-1.5329299E3,-7.135764E4,2.1769608E5,4.771655E4,-1.0750134E5,7.221814E4,2.921527E5,1.7752184E4,2.5349075E5,-1.2502508E5,8.145296E4,1.7464578E5,-9.349962E3,2.3148412E5,4.0738922E5,-1.7821879E3,2.8309783E3,8.4564E3,1.5483275E4,-4.570142E3,-9.902128E3,-1.01739746E3,5.002108E3,9.252932E3,2.697671E3,-3.148072E3,3.4740183E3,1.0357245E4,1.537612E4,1.5074096E4,2.395384E4],"categories":[],"categories_nodes":[],"categories_segments":[],"categories_sizes":[],"default_left":[0,0,0,0,0,0,0,0,0,0,0,0,0,0,0,0,0,0,0,0,0,0,0,0,0,0,0,0,0,0,0],"id":2,"left_children":[1,3,5,7,9,11,13,15,17,19,21,23,25,27,29,-1,-1,-1,-1,-1,-1,-1,-1,-1,-1,-1,-1,-1,-1,-1,-1],"loss_changes":[8.1744867E12,1.7481614E12,1.3762025E12,5.812599E11,1.0399622E12,3.7760018E11,4.9995055E11,1.7634843E11,4.495573E9,6.81577E11,5.313038E10,1.5150547E10,1.1425604E11,4.36399E10,6.8149576E10,0E0,0E0,0E0,0E0,0E0,0E0,0E0,0E0,0E0,0E0,0E0,0E0,0E0,0E0,0E0,0E0],"parents":[2147483647,0,0,1,1,2,2,3,3,4,4,5,5,6,6,7,7,8,8,9,9,10,10,11,11,12,12,13,13,14,14],"right_children":[2,4,6,8,10,12,14,16,18,20,22,24,26,28,30,-1,-1,-1,-1,-1,-1,-1,-1,-1,-1,-1,-1,-1,-1,-1,-1],"split_conditions":[4.1474125E4,5E0,1.875E-1,5.7266562E3,1.1E1,7.916875E2,-1.1713854E3,3.4720355E4,8.3207294E2,5E0,3.4826426E4,5E0,4.404752E4,6.1013853E3,4.458053E4,-1.7821879E3,2.8309783E3,8.4564E3,1.5483275E4,-4.570142E3,-9.902128E3,-1.01739746E3,5.002108E3,9.252932E3,2.697671E3,-3.148072E3,3.4740183E3,1.0357245E4,1.537612E4,1.5074096E4,2.395384E4],"split_indices":[3,15,1,2,15,6,12,3,6,17,3,17,3,2,3,0,0,0,0,0,0,0,0,0,0,0,0,0,0,0,0],"split_type":[0,0,0,0,0,0,0,0,0,0,0,0,0,0,0,0,0,0,0,0,0,0,0,0,0,0,0,0,0,0,0],"sum_hessian":[5.32E2,4.04E2,1.28E2,9.4E1,3.1E2,4.4E1,8.4E1,8.3E1,1.1E1,2.84E2,2.6E1,1.9E1,2.5E1,5.7E1,2.7E1,3.5E1,4.8E1,6E0,5E0,1.96E2,8.8E1,4E0,2.2E1,1.7E1,2E0,1.5E1,1E1,4.6E1,1.1E1,1.3E1,1.4E1],"tree_param":{"num_deleted":"0","num_feature":"19","num_nodes":"31","size_leaf_vector":"1"}},{"base_weights":[6.9331675E3,-4.676748E4,2.7536022E5,-7.781158E4,1.4069422E5,1.7426316E5,3.478318E5,-1.15519914E5,-2.491334E4,-2.0397395E4,1.7755266E5,1.03092664E5,2.0471217E5,2.9160428E5,2.3354309E4,-4.084199E3,-8.574146E3,-3.2407195E3,2.0041904E3,-2.3777593E3,4.2990146E3,1.2309266E4,7.330142E3,2.0517937E3,7.964359E3,3.1952937E3,1.0982511E4,2.9765845E3,1.4813377E4],"categories":[],"categories_nodes":[],"categories_segments":[],"categories_sizes":[],"default_left":[0,0,0,0,0,0,0,0,0,0,0,0,0,0,0,0,0,0,0,0,0,0,0,0,0,0,0,0,0],"id":3,"left_children":[1,3,5,7,9,11,13,15,17,19,21,23,25,27,-1,-1,-1,-1,-1,-1,-1,-1,-1,-1,-1,-1,-1,-1,-1],"loss_changes":[7.868893E12,2.658856E12,6.0611206E11,7.770517E11,3.8956473E11,6.5578467E10,2.1247558E11,4.1772437E11,4.2792455E11,4.164558E10,7.648929E10,4.2285023E10,4.2754245E10,2.3487054E10,0E0,0E0,0E0,0E0,0E0,0E0,0E0,0E0,0E0,0E0,0E0,0E0,0E0,0E0,0E0],"parents":[2147483647,0,0,1,1,2,2,3,3,4,4,5,5,6,6,7,7,8,8,9,9,10,10,11,11,12,12,13,13],"right_children":[2,4,6,8,10,12,14,16,18,20,22,24,26,28,-1,-1,-1,-1,-1,-1,-1,-1,-1,-1,-1,-1,-1,-1,-1],"split_conditions":[4.2493853E3,4.20443E4,6.0295938E3,1.689E3,-2.9510312E3,2.6520834E1,4.5159E4,5E0,5.2220938E3,1.8206875E3,6.7682294E2,2.346875E2,-3.0669167E3,6.4921875E2,2.3354309E4,-4.084199E3,-8.574146E3,-3.2407195E3,2.0041904E3,-2.3777593E3,4.2990146E3,1.2309266E4,7.330142E3,2.0517937E3,7.964359E3,3.1952937E3,1.0982511E4,2.9765845E3,1.4813377E4],"split_indices":[2,3,2,2,13,7,3,17,4,2,6,0,11,6,0,0,0,0,0,0,0,0,0,0,0,0,0,0,0],"split_type":[0,0,0,0,0,0,0,0,0,0,0,0,0,0,0,0,0,0,0,0,0,0,0,0,0,0,0,0,0],"sum_hessian":[5.44E2,4.54E2,9E1,3.9E2,6.4E1,3.9E1,5.1E1,2.27E2,1.63E2,1.2E1,5.2E1,1.3E1,2.6E1,3.7E1,1.4E1,1.43E2,8.4E1,1.01E2,6.2E1,1E1,2E0,1.4E1,3.8E1,7E0,6E0,3E0,2.3E1,1E0,3.6E1],"tree_param":{"num_deleted":"0","num_feature":"19","num_nodes":"29","size_leaf_vector":"1"}},{"base_weights":[-6.9105347E2,-6.2250406E4,2.04184E5,-7.749931E4,2.143663E5,7.497347E4,2.6866434E5,-1.1497978E5,-2.8236959E4,1.5645077E5,1.4808108E4,-1.5033612E4,1.4685548E5,1.8193127E5,3.1432588E5,-9.239393E3,-4.4156743E3,-3.2233474E3,1.773498E3,8.115061E3,1.8636063E3,-3.3509355E3,1.6796132E3,-1.7683751E2,7.6774023E3,1.0993326E4,6.340461E3,1.3663666E4,2.1590803E4],"categories":[],"categories_nodes":[],"categories_segments":[],"categories_sizes":[],"default_left":[0,0,0,0,0,0,0,0,0,0,0,0,0,0,0,0,0,0,0,0,0,0,0,0,0,0,0,0,0],"id":4,"left_children":[1,3,5,7,9,11,13,15,17,19,-1,21,23,25,27,-1,-1,-1,-1,-1,-1,-1,-1,-1,-1,-1,-1,-1,-1],"loss_changes":[6.8231774E12,1.7713436E12,1.0212999E12,7.2607203E11,5.7884738E10,2.8041304E11,2.7152456E11,4.0066168E11,3.9928005E11,4.4094587E9,0E0,5.280773E10,2.4699273E10,3.6941988E10,1.3763032E11,0E0,0E0,0E0,0E0,0E0,0E0,0E0,0E0,0E0,0E0,0E0,0E0,0E0,0E0],"parents":[2147483647,0,0,1,1,2,2,3,3,4,4,5,5,6,6,7,7,8,8,9,9,11,11,12,12,13,13,14,14],"right_children":[2,4,6,8,10,12,14,16,18,20,-1,22,24,26,28,-1,-1,-1,-1,-1,-1,-1,-1,-1,-1,-1,-1,-1,-1],"split_conditions":[4.141505E4,4.6939897E3,-2.163052E3,1.689E3,2.926979E2,4.4875835E3,4.0724688E3,3.3796863E4,5.106146E3,2.7471875E3,1.4808108E4,-1.9489375E3,7.2153125E2,6.917083E2,4.799028E4,-9.239393E3,-4.4156743E3,-3.2233474E3,1.773498E3,8.115061E3,1.8636063E3,-3.3509355E3,1.6796132E3,-1.7683751E2,7.6774023E3,1.0993326E4,6.340461E3,1.3663666E4,2.1590803E4],"split_indices":[3,2,13,2,1,4,2,3,4,5,0,9,2,6,3,0,0,0,0,0,0,0,0,0,0,0,0,0,0],"split_type":[0,0,0,0,0,0,0,0,0,0,0,0,0,0,0,0,0,0,0,0,0,0,0,0,0,0,0,0,0],"sum_hessian":[5.39E2,4.15E2,1.24E2,3.94E2,2.1E1,4.2E1,8.2E1,2.23E2,1.71E2,1.4E1,7E0,1.9E1,2.3E1,3E1,5.2E1,6E1,1.63E2,1.09E2,6.2E1,1.3E1,1E0,9E0,1E1,1E0,2.2E1,1.6E1,1.4E1,4.1E1,1.1E1],"tree_param":{"num_deleted":"0","num_feature":"19","num_nodes":"29","size_leaf_vector":"1"}},{"base_weights":[5.225937E2,-4.723192E4,2.4797188E5,-7.405016E4,1.2764108E5,1.5379006E5,3.0726572E5,1.2318923E4,-9.69925E4,-1.9017875E4,1.6394567E5,6.4950605E4,1.6939294E5,2.650651E5,2.1468123E4,2.510991E3,-2.7049685E3,-5.4978486E3,2.8378262E3,-2.2146284E3,3.9997644E3,1.0462868E4,6.7817617E3,3.6399043E3,4.4664377E2,1.1105312E3,8.955637E3,6.2205503E3,1.3829841E4],"categories":[],"categories_nodes":[],"categories_segments":[],"categories_sizes":[],"default_left":[0,0,0,0,0,0,0,0,0,0,0,0,0,0,0,0,0,0,0,0,0,0,0,0,0,0,0,0,0],"id":5,"left_children":[1,3,5,7,9,11,13,15,17,19,21,23,25,27,-1,-1,-1,-1,-1,-1,-1,-1,-1,-1,-1,-1,-1,-1,-1],"loss_changes":[6.428246E12,2.1479938E12,4.4417312E11,7.858722E11,3.279059E11,3.889922E10,1.592766E11,2.1417114E11,6.30136E11,3.6076052E10,3.4474164E10,2.4268882E9,3.8939263E10,3.3711456E10,0E0,0E0,0E0,0E0,0E0,0E0,0E0,0E0,0E0,0E0,0E0,0E0,0E0,0E0,0E0],"parents":[2147483647,0,0,1,1,2,2,3,3,4,4,5,5,6,6,7,7,8,8,9,9,10,10,11,11,12,12,13,13],"right_children":[2,4,6,8,10,12,14,16,18,20,22,24,26,28,-1,-1,-1,-1,-1,-1,-1,-1,-1,-1,-1,-1,-1,-1,-1],"split_conditions":[4.2843647E3,4.20443E4,6.0295938E3,5E0,-2.9510312E3,-4.2610416E2,4.7334625E4,5E0,1.1E1,1.867E3,6.917083E2,-1.2928334E3,-1.8359584E3,-1.2309166E3,2.1468123E4,2.510991E3,-2.7049685E3,-5.4978486E3,2.8378262E3,-2.2146284E3,3.9997644E3,1.0462868E4,6.7817617E3,3.6399043E3,4.4664377E2,1.1105312E3,8.955637E3,6.2205503E3,1.3829841E4],"split_indices":[2,3,2,15,13,10,3,17,15,2,6,10,9,9,0,0,0,0,0,0,0,0,0,0,0,0,0,0,0],"split_type":[0,0,0,0,0,0,0,0,0,0,0,0,0,0,0,0,0,0,0,0,0,0,0,0,0,0,0,0,0],"sum_hessian":[5.42E2,4.55E2,8.7E1,3.95E2,6E1,3.5E1,5.2E1,8.3E1,3.12E2,1.2E1,4.8E1,6E0,2.9E1,4.1E1,1.1E1,5.3E1,3E1,2.88E2,2.4E1,1E1,2E0,1.6E1,3.2E1,5E0,1E0,2E0,2.7E1,4E0,3.7E1],"tree_param":{"num_deleted":"0","num_feature":"19","num_nodes":"29","size_leaf_vector":"1"}},{"base_weights":[-4.539964E3,-6.133559E4,1.7786272E5,-7.3667016E4,1.9695842E5,-3.7412266E4,2.0895031E5,9.3685E3,-9.4920086E4,1.4255952E5,1.3492403E4,-9.252561E4,1.0609773E3,1.4658678E5,2.709164E5,-3.9979036E3,1.4613578E3,-5.343613E3,2.672849E3,7.6759453E3,2.7427605E3,-1.3428688E3,-4.9497046E3,-8.485088E2,4.5343125E3,2.4622595E3,7.949091E3,8.543504E3,1.4890739E4],"categories":[],"categories_nodes":[],"categories_segments":[],"categories_sizes":[],"default_left":[0,0,0,0,0,0,0,0,0,0,0,0,0,0,0,0,0,0,0,0,0,0,0,0,0,0,0,0,0],"id":6,"left_children":[1,3,5,7,9,11,13,15,17,19,-1,21,23,25,27,-1,-1,-1,-1,-1,-1,-1,-1,-1,-1,-1,-1,-1,-1],"loss_changes":[5.5844143E12,1.3235993E12,8.644424E11,6.944398E11,3.68678E10,3.6144775E10,3.9310223E11,1.4602328E11,5.607963E11,4.0741437E9,0E0,3.146916E8,1.9315479E10,6.2150935E10,9.712199E10,0E0,0E0,0E0,0E0,0E0,0E0,0E0,0E0,0E0,0E0,0E0,0E0,0E0,0E0],"parents":[2147483647,0,0,1,1,2,2,3,3,4,4,5,5,6,6,7,7,8,8,9,9,11,11,12,12,13,13,14,14],"right_children":[2,4,6,8,10,12,14,16,18,20,-1,22,24,26,28,-1,-1,-1,-1,-1,-1,-1,-1,-1,-1,-1,-1,-1,-1],"split_conditions":[4.1451395E4,4.8743125E3,-3.4609375E3,5E0,4.0595834E2,6.9234375E2,-1.0988541E3,3.3164406E4,1.1E1,5.8885418E1,1.3492403E4,1.3644062E3,1.875E-1,2.607125E3,3.1383542E3,-3.9979036E3,1.4613578E3,-5.343613E3,2.672849E3,7.6759453E3,2.7427605E3,-1.3428688E3,-4.9497046E3,-8.485088E2,4.5343125E3,2.4622595E3,7.949091E3,8.543504E3,1.4890739E4],"split_indices":[3,2,13,15,1,2,9,3,15,1,0,4,1,4,2,0,0,0,0,0,0,0,0,0,0,0,0,0,0],"split_type":[0,0,0,0,0,0,0,0,0,0,0,0,0,0,0,0,0,0,0,0,0,0,0,0,0,0,0,0,0],"sum_hessian":[5.37E2,4.1E2,1.27E2,3.92E2,1.8E1,1.6E1,1.11E2,8E1,3.12E2,1.2E1,6E0,6E0,1E1,5.7E1,5.4E1,1.4E1,6.6E1,2.89E2,2.3E1,1E1,2E0,1E0,5E0,9E0,1E0,7E0,5E1,1.3E1,4.1E1],"tree_param":{"num_deleted":"0","num_feature":"19","num_nodes":"29","size_leaf_vector":"1"}},{"base_weights":[-2.3367363E3,-5.2629074E4,1.7498486E5,-8.226222E4,6.373367E4,1.0563081E5,2.7392553E5,-1.2614234E5,-5.515517E4,8.251807E3,1.4275772E5,1.08810205E4,1.3525795E5,2.0891047E5,3.5450112E5,-7.5826313E3,-3.3751973E3,-3.1216306E3,5.594276E3,-1.8001328E3,4.569257E3,7.443607E3,-1.6283125E3,-7.763231E2,3.3141863E3,5.494668E3,9.993934E3,3.5121294E3,1.0829029E4,3.6836875E3,1.82702E4],"categories":[],"categories_nodes":[],"categories_segments":[],"categories_sizes":[],"default_left":[0,0,0,0,0,0,0,0,0,0,0,0,0,0,0,0,0,0,0,0,0,0,0,0,0,0,0,0,0,0,0],"id":7,"left_children":[1,3,5,7,9,11,13,15,17,19,21,23,25,27,29,-1,-1,-1,-1,-1,-1,-1,-1,-1,-1,-1,-1,-1,-1,-1,-1],"loss_changes":[4.762459E12,1.4396917E12,7.807736E11,3.879435E11,3.714961E11,1.97837E11,1.7739494E11,1.782439E11,2.5862046E11,1.9092015E11,4.236837E10,2.736398E10,6.654486E10,1.5631385E10,3.4315436E10,0E0,0E0,0E0,0E0,0E0,0E0,0E0,0E0,0E0,0E0,0E0,0E0,0E0,0E0,0E0,0E0],"parents":[2147483647,0,0,1,1,2,2,3,3,4,4,5,5,6,6,7,7,8,8,9,9,10,10,11,11,12,12,13,13,14,14],"right_children":[2,4,6,8,10,12,14,16,18,20,22,24,26,28,30,-1,-1,-1,-1,-1,-1,-1,-1,-1,-1,-1,-1,-1,-1,-1,-1],"split_conditions":[3.563198E3,4.0327355E4,6.0295938E3,3.4440332E4,5.0586147E3,3.45448E4,-8.7625E1,2.0319166E3,9.0821875E2,-1.6705416E3,4.4208334E2,4.1054585E3,4.6505688E4,-2.8977083E3,-3.7908334E2,-7.5826313E3,-3.3751973E3,-3.1216306E3,5.594276E3,-1.8001328E3,4.569257E3,7.443607E3,-1.6283125E3,-7.763231E2,3.3141863E3,5.494668E3,9.993934E3,3.5121294E3,1.0829029E4,3.6836875E3,1.82702E4],"split_indices":[2,3,2,3,8,3,9,2,13,13,1,4,3,13,10,0,0,0,0,0,0,0,0,0,0,0,0,0,0,0,0],"split_type":[0,0,0,0,0,0,0,0,0,0,0,0,0,0,0,0,0,0,0,0,0,0,0,0,0,0,0,0,0,0,0],"sum_hessian":[5.32E2,4.15E2,1.17E2,3.31E2,8.4E1,7E1,4.7E1,1.25E2,2.06E2,5E1,3.4E1,1.7E1,5.3E1,2.8E1,1.9E1,8.6E1,3.9E1,1.98E2,8E0,3.3E1,1.7E1,3.3E1,1E0,1.2E1,5E0,4E1,1.3E1,2E0,2.6E1,1E0,1.8E1],"tree_param":{"num_deleted":"0","num_feature":"19","num_nodes":"31","size_leaf_vector":"1"}},{"base_weights":[-1.6421614E3,-5.4288996E4,1.5397064E5,-9.642695E4,3.040527E3,9.85862E4,2.555716E5,-1.2697726E5,-5.5441785E4,1.0498178E5,-1.9553896E4,2.7780707E4,1.5325888E5,2.1678569E5,1.8870045E4,-7.678847E3,-3.6364734E3,-4.7075386E3,-7.424897E2,3.5392012E3,7.661478E3,-1.8310533E3,1.9596106E3,-2.2509752E2,3.8243032E3,2.0526802E3,8.1061694E3,5.007624E3,1.1378079E4],"categories":[],"categories_nodes":[],"categories_segments":[],"categories_sizes":[],"default_left":[0,0,0,0,0,0,0,0,0,0,0,0,0,0,0,0,0,0,0,0,0,0,0,0,0,0,0,0,0],"id":8,"left_children":[1,3,5,7,9,11,13,15,17,19,21,23,25,27,-1,-1,-1,-1,-1,-1,-1,-1,-1,-1,-1,-1,-1,-1,-1],"loss_changes":[4.3749729E12,9.641769E11,7.3446405E11,2.8094536E11,3.9361446E11,3.4027255E11,1.4027247E11,1.7785985E11,1.5572933E11,4.030274E10,1.4180344E11,6.3237865E10,4.307655E10,2.496856E10,0E0,0E0,0E0,0E0,0E0,0E0,0E0,0E0,0E0,0E0,0E0,0E0,0E0,0E0,0E0],"parents":[2147483647,0,0,1,1,2,2,3,3,4,4,5,5,6,6,7,7,8,8,9,9,10,10,11,11,12,12,13,13],"right_children":[2,4,6,8,10,12,14,16,18,20,22,24,26,28,-1,-1,-1,-1,-1,-1,-1,-1,-1,-1,-1,-1,-1,-1,-1],"split_conditions":[3.0534167E3,3.800377E4,5.9329585E3,5.181479E3,2E0,4.013897E4,4.7334625E4,2.0319166E3,7.5375E1,4.4889363E4,4.3415E3,4.2070625E3,2.6520834E1,-1.8966667E2,1.8870045E4,-7.678847E3,-3.6364734E3,-4.7075386E3,-7.424897E2,3.5392012E3,7.661478E3,-1.8310533E3,1.9596106E3,-2.2509752E2,3.8243032E3,2.0526802E3,8.1061694E3,5.007624E3,1.1378079E4],"split_indices":[2,3,2,4,18,3,3,2,10,3,8,4,7,10,0,0,0,0,0,0,0,0,0,0,0,0,0,0,0],"split_type":[0,0,0,0,0,0,0,0,0,0,0,0,0,0,0,0,0,0,0,0,0,0,0,0,0,0,0,0,0],"sum_hessian":[5.32E2,3.98E2,1.34E2,2.29E2,1.69E2,8.8E1,4.6E1,1.3E2,9.9E1,3E1,1.39E2,3.9E1,4.9E1,3.7E1,9E0,8.6E1,4.4E1,5E1,4.9E1,1.9E1,1.1E1,1.08E2,3.1E1,2.4E1,1.5E1,4E0,4.5E1,4E0,3.3E1],"tree_param":{"num_deleted":"0","num_feature":"19","num_nodes":"29","size_leaf_vector":"1"}},{"base_weights":[6.4722773E3,-3.4810953E4,2.1420728E5,5.4550395E4,-7.0335695E4,1.6436512E5,3.0675134E5,-4.9739734E4,9.130107E4,2.1045365E4,-9.544021E4,2.0263844E5,1.1933719E5,8.200483E3,3.2873928E5,-3.6553508E3,-7.633692E2,6.0604272E3,1.5719141E3,2.203257E3,-2.6657117E3,-3.4468142E3,-7.739057E3,5.448427E3,1.1524076E4,1.0876156E3,6.468716E3,1.6743977E4,4.534341E3],"categories":[],"categories_nodes":[],"categories_segments":[],"categories_sizes":[],"default_left":[0,0,0,0,0,0,0,0,0,0,0,0,0,0,0,0,0,0,0,0,0,0,0,0,0,0,0,0,0],"id":9,"left_children":[1,3,5,7,9,11,13,15,17,19,21,23,25,-1,27,-1,-1,-1,-1,-1,-1,-1,-1,-1,-1,-1,-1,-1,-1],"loss_changes":[4.6041777E12,1.4260302E12,3.6010197E11,4.9513103E11,7.384075E11,7.921992E10,4.0241463E10,2.6271695E10,1.6627224E11,1.2217119E11,3.856673E11,5.5734436E10,2.6569966E10,0E0,6.173229E9,0E0,0E0,0E0,0E0,0E0,0E0,0E0,0E0,0E0,0E0,0E0,0E0,0E0,0E0],"parents":[2147483647,0,0,1,1,2,2,3,3,4,4,5,5,6,6,7,7,8,8,9,9,10,10,11,11,12,12,14,14],"right_children":[2,4,6,8,10,12,14,16,18,20,22,24,26,-1,28,-1,-1,-1,-1,-1,-1,-1,-1,-1,-1,-1,-1,-1,-1],"split_conditions":[4.2843647E3,2.1935625E3,-2.0764583E2,1.4880729E3,5E0,2E0,-1.0580729E3,8.345417E2,-1.3914166E3,5E0,5E0,-1.1887084E3,-3.0669167E3,8.200483E3,3.5282083E3,-3.6553508E3,-7.633692E2,6.0604272E3,1.5719141E3,2.203257E3,-2.6657117E3,-3.4468142E3,-7.739057E3,5.448427E3,1.1524076E4,1.0876156E3,6.468716E3,1.6743977E4,4.534341E3],"split_indices":[2,5,9,2,15,18,13,2,11,17,17,9,11,0,13,0,0,0,0,0,0,0,0,0,0,0,0,0,0],"split_type":[0,0,0,0,0,0,0,0,0,0,0,0,0,0,0,0,0,0,0,0,0,0,0,0,0,0,0,0,0],"sum_hessian":[5.35E2,4.47E2,8.8E1,1.27E2,3.2E2,5.9E1,2.9E1,3.3E1,9.4E1,6.9E1,2.51E2,3E1,2.9E1,5E0,2.4E1,1.9E1,1.4E1,6.2E1,3.2E1,5.3E1,1.6E1,1.75E2,7.6E1,8E0,2.2E1,3E0,2.6E1,2.3E1,1E0],"tree_param":{"num_deleted":"0","num_feature":"19","num_nodes":"29","size_leaf_vector":"1"}},{"base_weights":[3.2285E3,-5.0972395E4,1.3854E5,5.8217867E4,-7.09689E4,8.3115195E4,2.4477125E5,-8.743612E3,1.1361978E5,-4.594838E4,-1.2336454E5,3.4303094E4,1.3709869E5,1.795073E4,2.1064744E5,-1.7514901E3,2.2351562E3,8.599541E3,4.1066113E3,1.6517318E3,-3.1674558E3,-2.508533E3,-7.298026E3,7.265306E3,6.60736E2,2.4410925E3,7.1856797E3,1.583675E3,1.0703651E4],"categories":[],"categories_nodes":[],"categories_segments":[],"categories_sizes":[],"default_left":[0,0,0,0,0,0,0,0,0,0,0,0,0,0,0,0,0,0,0,0,0,0,0,0,0,0,0,0,0],"id":10,"left_children":[1,3,5,7,9,11,13,15,17,19,21,23,25,-1,27,-1,-1,-1,-1,-1,-1,-1,-1,-1,-1,-1,-1,-1,-1],"loss_changes":[4.077434E12,8.709506E11,9.158231E11,2.310007E11,4.348163E11,2.7461222E11,1.3488908E11,4.230836E10,4.836465E10,3.168217E11,1.7129708E11,1.3150962E11,2.2180725E10,0E0,2.0195705E10,0E0,0E0,0E0,0E0,0E0,0E0,0E0,0E0,0E0,0E0,0E0,0E0,0E0,0E0],"parents":[2147483647,0,0,1,1,2,2,3,3,4,4,5,5,6,6,7,7,8,8,9,9,10,10,11,11,12,12,14,14],"right_children":[2,4,6,8,10,12,14,16,18,20,22,24,26,-1,28,-1,-1,-1,-1,-1,-1,-1,-1,-1,-1,-1,-1,-1,-1],"split_conditions":[2.9906667E3,1.6846666E3,5.9329585E3,1.7864166E3,5E0,5.5536353E3,2E0,1.2E1,-1.5741771E3,5E0,5E0,2E0,6.5317706E2,1.795073E4,6.4921875E2,-1.7514901E3,2.2351562E3,8.599541E3,4.1066113E3,1.6517318E3,-3.1674558E3,-2.508533E3,-7.298026E3,7.265306E3,6.60736E2,2.4410925E3,7.1856797E3,1.583675E3,1.0703651E4],"split_indices":[2,5,2,2,17,4,15,15,12,15,15,18,6,0,6,0,0,0,0,0,0,0,0,0,0,0,0,0,0],"split_type":[0,0,0,0,0,0,0,0,0,0,0,0,0,0,0,0,0,0,0,0,0,0,0,0,0,0,0,0,0],"sum_hessian":[5.54E2,3.96E2,1.58E2,6.1E1,3.35E2,1.05E2,5.3E1,2.8E1,3.3E1,2.28E2,1.07E2,5.6E1,4.9E1,1E1,4.3E1,1.9E1,9E0,1E1,2.3E1,4.1E1,1.87E2,2.6E1,8.1E1,8E0,4.8E1,4E0,4.5E1,1E0,4.2E1],"tree_param":{"num_deleted":"0","num_feature":"19","num_nodes":"29","size_leaf_vector":"1"}},{"base_weights":[4.564842E3,1.7235417E5,-3.388943E4,1.2637071E5,2.60372E5,-5.848854E4,7.2720516E4,8.923336E4,1.538082E5,1.5067786E4,1.400723E5,-3.206845E4,-1.0879651E5,3.13921E4,1.607342E5,5.6476753E3,2.7028254E3,2.5992812E3,8.245573E3,1.0045542E3,8.377812E3,1.7952865E3,-2.3479827E3,-5.93408E3,4.4211002E2,8.3364586E1,4.8868857E3,3.9592856E3,9.115935E3],"categories":[],"categories_nodes":[],"categories_segments":[],"categories_sizes":[],"default_left":[0,0,0,0,0,0,0,0,0,0,0,0,0,0,0,0,0,0,0,0,0,0,0,0,0,0,0,0,0],"id":11,"left_children":[1,3,5,7,9,11,13,15,17,-1,19,21,23,25,27,-1,-1,-1,-1,-1,-1,-1,-1,-1,-1,-1,-1,-1,-1],"loss_changes":[3.3222801E12,3.556437E11,1.1030849E12,5.2507312E10,1.1555884E11,4.4974814E11,2.82314E11,1.8926141E10,3.212732E10,0E0,2.9609148E10,2.2943505E11,1.3710511E11,1.0830312E11,2.956755E10,0E0,0E0,0E0,0E0,0E0,0E0,0E0,0E0,0E0,0E0,0E0,0E0,0E0,0E0],"parents":[2147483647,0,0,1,1,2,2,3,3,4,4,5,5,6,6,7,7,8,8,10,10,11,11,12,12,13,13,14,14],"right_children":[2,4,6,8,10,12,14,16,18,-1,20,22,24,26,28,-1,-1,-1,-1,-1,-1,-1,-1,-1,-1,-1,-1,-1,-1],"split_conditions":[2E0,-1.1621771E3,3.0534167E3,-1.1403334E3,2E1,5E0,4.3729168E1,5E0,-1.3751666E3,1.5067786E4,1.5839583E2,5E0,1.1E1,4.8743125E3,7.141458E2,5.6476753E3,2.7028254E3,2.5992812E3,8.245573E3,1.0045542E3,8.377812E3,1.7952865E3,-2.3479827E3,-5.93408E3,4.4211002E2,8.3364586E1,4.8868857E3,3.9592856E3,9.115935E3],"split_indices":[18,12,2,9,16,17,1,17,10,0,0,15,15,2,6,0,0,0,0,0,0,0,0,0,0,0,0,0,0],"split_type":[0,0,0,0,0,0,0,0,0,0,0,0,0,0,0,0,0,0,0,0,0,0,0,0,0,0,0,0,0],"sum_hessian":[5.13E2,9.5E1,4.18E2,6.4E1,3.1E1,3.4E2,7.8E1,2.9E1,3.5E1,2.2E1,9E0,2.24E2,1.16E2,5.4E1,2.4E1,1.6E1,1.3E1,4E0,3.1E1,2E0,7E0,4E1,1.84E2,1.07E2,9E0,3.8E1,1.6E1,6E0,1.8E1],"tree_param":{"num_deleted":"0","num_feature":"19","num_nodes":"29","size_leaf_vector":"1"}},{"base_weights":[5.586573E2,-4.1610297E4,1.3735433E5,-5.268375E4,1.3960572E5,4.1664875E4,1.8248925E5,-8.4878734E4,-2.0548494E4,9.712216E4,1.062163E4,-2.3201178E4,9.128113E4,1.3708931E5,2.3368688E5,-5.279184E3,-9.850762E2,-2.3130974E3,1.7885956E3,5.018883E3,1.1258531E3,-2.3447485E3,7.6198285E2,3.3349158E3,6.6054736E3,5.901435E3,9.885837E3,1.291739E4,6.1389253E3],"categories":[],"categories_nodes":[],"categories_segments":[],"categories_sizes":[],"default_left":[0,0,0,0,0,0,0,0,0,0,0,0,0,0,0,0,0,0,0,0,0,0,0,0,0,0,0,0,0],"id":12,"left_children":[1,3,5,7,9,11,13,15,17,19,-1,21,23,25,27,-1,-1,-1,-1,-1,-1,-1,-1,-1,-1,-1,-1,-1,-1],"loss_changes":[3.1091846E12,8.3411016E11,5.4090138E11,4.0071293E11,5.3622768E10,1.3729106E11,1.6785972E11,2.59721E11,2.8550057E11,1.8686935E9,0E0,1.8020037E10,1.5276737E10,3.2132366E10,7.494933E10,0E0,0E0,0E0,0E0,0E0,0E0,0E0,0E0,0E0,0E0,0E0,0E0,0E0,0E0],"parents":[2147483647,0,0,1,1,2,2,3,3,4,4,5,5,6,6,7,7,8,8,9,9,11,11,12,12,13,13,14,14],"right_children":[2,4,6,8,10,12,14,16,18,20,-1,22,24,26,28,-1,-1,-1,-1,-1,-1,-1,-1,-1,-1,-1,-1,-1,-1],"split_conditions":[4.1451395E4,4.8743125E3,1.875E-1,3.5818188E4,4.0595834E2,-2.7075208E3,5.1033647E3,2.5522708E3,2.4102083E2,2.7471875E3,1.062163E4,-1.9585209E3,8.408406E3,4.830649E4,9.885833E2,-5.279184E3,-9.850762E2,-2.3130974E3,1.7885956E3,5.018883E3,1.1258531E3,-2.3447485E3,7.6198285E2,3.3349158E3,6.6054736E3,5.901435E3,9.885837E3,1.291739E4,6.1389253E3],"split_indices":[3,2,1,3,1,13,2,2,10,5,0,9,4,3,10,0,0,0,0,0,0,0,0,0,0,0,0,0,0],"split_type":[0,0,0,0,0,0,0,0,0,0,0,0,0,0,0,0,0,0,0,0,0,0,0,0,0,0,0,0,0],"sum_hessian":[5.37E2,4.11E2,1.26E2,3.88E2,2.3E1,4.1E1,8.5E1,1.93E2,1.95E2,1.6E1,7E0,1.8E1,2.3E1,4.7E1,3.8E1,1.46E2,4.7E1,1.34E2,6.1E1,1.5E1,1E0,1.1E1,7E0,1.6E1,7E0,3.8E1,9E0,3E1,8E0],"tree_param":{"num_deleted":"0","num_feature":"19","num_nodes":"29","size_leaf_vector":"1"}},{"base_weights":[3.0036053E2,-4.0149363E4,1.3200225E5,4.4434055E4,-6.464786E4,4.8163312E4,1.738465E5,1.8216102E3,1.1707229E5,-7.663351E4,5.2169758E4,-1.9523258E4,9.3170805E4,1.422303E5,2.6041673E5,1.7788049E3,-1.7161793E3,4.3141494E3,1.0317608E4,-2.6104783E3,-6.4332593E3,-6.750539E2,3.637177E3,-2.5157146E3,5.0705002E2,5.713337E3,2.3995325E3,4.6100396E3,7.797183E3,6.9562275E3,1.4038614E4],"categories":[],"categories_nodes":[],"categories_segments":[],"categories_sizes":[],"default_left":[0,0,0,0,0,0,0,0,0,0,0,0,0,0,0,0,0,0,0,0,0,0,0,0,0,0,0,0,0,0,0],"id":13,"left_children":[1,3,5,7,9,11,13,15,17,19,21,23,25,27,29,-1,-1,-1,-1,-1,-1,-1,-1,-1,-1,-1,-1,-1,-1,-1,-1],"loss_changes":[2.8340988E12,8.462443E11,4.3014934E11,2.845537E11,4.4644054E11,1.3281431E11,1.9013357E11,7.3204785E10,7.5656724E10,3.5800744E11,4.151504E10,1.6951315E10,1.929732E10,2.884436E10,1.2786074E10,0E0,0E0,0E0,0E0,0E0,0E0,0E0,0E0,0E0,0E0,0E0,0E0,0E0,0E0,0E0,0E0],"parents":[2147483647,0,0,1,1,2,2,3,3,4,4,5,5,6,6,7,7,8,8,9,9,10,10,11,11,12,12,13,13,14,14],"right_children":[2,4,6,8,10,12,14,16,18,20,22,24,26,28,30,-1,-1,-1,-1,-1,-1,-1,-1,-1,-1,-1,-1,-1,-1,-1,-1],"split_conditions":[4.1451395E4,5E0,1.875E-1,6.0686456E2,1.1E1,-2.7075208E3,-2.0764583E2,4E0,6.0270832E1,5E0,3.4826426E4,-1.9489375E3,7.878958E2,-8.513125E2,-1.43875E3,1.7788049E3,-1.7161793E3,4.3141494E3,1.0317608E4,-2.6104783E3,-6.4332593E3,-6.750539E2,3.637177E3,-2.5157146E3,5.0705002E2,5.713337E3,2.3995325E3,4.6100396E3,7.797183E3,6.9562275E3,1.4038614E4],"split_indices":[3,15,1,13,15,13,9,17,1,17,3,9,6,10,12,0,0,0,0,0,0,0,0,0,0,0,0,0,0,0,0],"split_type":[0,0,0,0,0,0,0,0,0,0,0,0,0,0,0,0,0,0,0,0,0,0,0,0,0,0,0,0,0,0,0],"sum_hessian":[5.3E2,4.06E2,1.24E2,9.1E1,3.15E2,4.2E1,8.2E1,5.8E1,3.3E1,2.86E2,2.9E1,1.7E1,2.5E1,6.2E1,2E1,3E1,2.8E1,2.6E1,7E0,1.96E2,9E1,7E0,2.2E1,8E0,9E0,1.6E1,9E0,1.5E1,4.7E1,4E0,1.6E1],"tree_param":{"num_deleted":"0","num_feature":"19","num_nodes":"31","size_leaf_vector":"1"}},{"base_weights":[1.076466E3,-3.4787105E4,1.31623E5,-4.5624844E4,1.4367878E5,6.096897E4,1.6755019E5,-6.500148E4,-2.7198374E3,7.0861914E4,1.8264477E5,7.692513E3,1.0420913E5,1.4629895E5,2.5764844E5,-2.3024028E3,-5.216987E3,-1.8117715E3,1.2460618E3,9.8985315E2,3.7168054E3,2.1906594E3,9.47159E3,-1.8429427E3,1.554499E3,5.6142085E3,7.819584E2,5.9821133E3,9.101572E3,4.2198706E3,1.4073807E4],"categories":[],"categories_nodes":[],"categories_segments":[],"categories_sizes":[],"default_left":[0,0,0,0,0,0,0,0,0,0,0,0,0,0,0,0,0,0,0,0,0,0,0,0,0,0,0,0,0,0,0],"id":14,"left_children":[1,3,5,7,9,11,13,15,17,19,21,23,25,27,29,-1,-1,-1,-1,-1,-1,-1,-1,-1,-1,-1,-1,-1,-1,-1,-1],"loss_changes":[2.4766036E12,8.092346E11,2.7916213E11,3.2571425E11,5.5154606E10,9.134568E10,1.0590867E11,1.965059E11,1.1485108E11,3.0246093E8,5.8342113E9,2.0951335E10,1.3978501E10,3.822951E10,2.9910368E10,0E0,0E0,0E0,0E0,0E0,0E0,0E0,0E0,0E0,0E0,0E0,0E0,0E0,0E0,0E0,0E0],"parents":[2147483647,0,0,1,1,2,2,3,3,4,4,5,5,6,6,7,7,8,8,9,9,10,10,11,11,12,12,13,13,14,14],"right_children":[2,4,6,8,10,12,14,16,18,20,22,24,26,28,30,-1,-1,-1,-1,-1,-1,-1,-1,-1,-1,-1,-1,-1,-1,-1,-1],"split_conditions":[4.20443E4,4.8743125E3,1.875E-1,2.4370833E2,7.444167E2,1.4901042E2,4.870977E4,5E0,3.5129375E4,3.382852E4,2.401927E3,-1.9912084E3,1.2868334E3,-1.3235938E3,1.10510414E2,-2.3024028E3,-5.216987E3,-1.8117715E3,1.2460618E3,9.8985315E2,3.7168054E3,2.1906594E3,9.47159E3,-1.8429427E3,1.554499E3,5.6142085E3,7.819584E2,5.9821133E3,9.101572E3,4.2198706E3,1.4073807E4],"split_indices":[3,2,1,10,6,0,3,17,3,3,4,9,10,12,0,0,0,0,0,0,0,0,0,0,0,0,0,0,0,0,0],"split_type":[0,0,0,0,0,0,0,0,0,0,0,0,0,0,0,0,0,0,0,0,0,0,0,0,0,0,0,0,0,0,0],"sum_hessian":[5.27E2,4.14E2,1.13E2,3.91E2,2.3E1,3.9E1,7.4E1,2.69E2,1.22E2,9E0,1.4E1,1.8E1,2.1E1,6.2E1,1.2E1,1.83E2,8.6E1,5.5E1,6.7E1,1E0,8E0,1E0,1.3E1,6E0,1.2E1,1.9E1,2E0,3.8E1,2.4E1,2E0,1E1],"tree_param":{"num_deleted":"0","num_feature":"19","num_nodes":"31","size_leaf_vector":"1"}},{"base_weights":[5.371894E3,1.486493E5,-2.8236535E4,1.24091555E5,1.4707425E4,-4.845757E4,5.9403508E4,1.00445836E5,1.9587552E5,-6.911506E4,-2.611746E3,2.5693732E4,1.3102095E5,3.1952966E3,6.1207104E3,1.0509494E4,4.1245986E3,-4.4925854E3,-1.1915643E3,-2.3713352E3,1.2157269E3,-1.0369386E3,2.7736208E3,1.1749813E3,7.4751064E3],"categories":[],"categories_nodes":[],"categories_segments":[],"categories_sizes":[],"default_left":[0,0,0,0,0,0,0,0,0,0,0,0,0,0,0,0,0,0,0,0,0,0,0,0,0],"id":15,"left_children":[1,3,5,7,-1,9,11,13,15,17,19,21,23,-1,-1,-1,-1,-1,-1,-1,-1,-1,-1,-1,-1],"loss_changes":[2.585213E12,3.2795787E11,7.7377346E11,1.3139221E11,0E0,3.3507875E11,1.9459863E11,4.7564784E10,1.6744317E10,2.2698302E11,1.3509689E11,7.996427E10,4.8151822E10,0E0,0E0,0E0,0E0,0E0,0E0,0E0,0E0,0E0,0E0,0E0,0E0],"parents":[2147483647,0,0,1,1,2,2,3,3,5,5,6,6,7,7,8,8,9,9,10,10,11,11,12,12],"right_children":[2,4,6,8,-1,10,12,14,16,18,20,22,24,-1,-1,-1,-1,-1,-1,-1,-1,-1,-1,-1,-1],"split_conditions":[2E0,4.830649E4,2.9906667E3,-3.9454166E2,1.4707425E4,2.4370833E2,4.3729168E1,2.9725105E3,9.885833E2,3.8479426E4,3.4826426E4,1.5459375E2,-2.8977083E3,3.1952966E3,6.1207104E3,1.0509494E4,4.1245986E3,-4.4925854E3,-1.1915643E3,-2.3713352E3,1.2157269E3,-1.0369386E3,2.7736208E3,1.1749813E3,7.4751064E3],"split_indices":[18,3,2,9,0,10,1,2,10,3,3,0,13,0,0,0,0,0,0,0,0,0,0,0,0],"split_type":[0,0,0,0,0,0,0,0,0,0,0,0,0,0,0,0,0,0,0,0,0,0,0,0,0],"sum_hessian":[5.35E2,1.01E2,4.34E2,8.8E1,1.3E1,3.53E2,8.1E1,6.8E1,2E1,2.43E2,1.1E2,5.6E1,2.5E1,2.7E1,4.1E1,1.7E1,3E0,1.66E2,7.7E1,4.1E1,6.9E1,2.2E1,3.4E1,4E0,2.1E1],"tree_param":{"num_deleted":"0","num_feature":"19","num_nodes":"25","size_leaf_vector":"1"}},{"base_weights":[-3.9625797E2,1.3825519E5,-2.9874963E4,1.1527456E5,2.3150764E5,3.4577418E4,-5.1735695E4,8.023416E4,1.3562103E5,2.4129397E5,1.8731562E3,5.6090474E3,9.566458E4,2.1193115E4,-7.005068E4,2.9639907E3,5.5519478E3,1.0570475E3,7.3010273E3,4.3860146E3,1.2848367E4,-7.7371686E2,2.0775835E3,1.3773208E3,6.286882E3,4.344683E3,7.269375E1,-2.5481384E3,-5.6478457E3],"categories":[],"categories_nodes":[],"categories_segments":[],"categories_sizes":[],"default_left":[0,0,0,0,0,0,0,0,0,0,0,0,0,0,0,0,0,0,0,0,0,0,0,0,0,0,0,0,0],"id":16,"left_children":[1,3,5,7,9,11,13,15,17,19,-1,21,23,25,27,-1,-1,-1,-1,-1,-1,-1,-1,-1,-1,-1,-1,-1,-1],"loss_changes":[2.1213335E12,1.6832607E11,6.0483076E11,4.2589684E10,2.3243129E10,1.923493E11,4.289054E11,1.2782453E10,5.1677757E10,1.5970927E10,0E0,5.7477394E10,6.823464E10,8.4170785E10,2.0390504E11,0E0,0E0,0E0,0E0,0E0,0E0,0E0,0E0,0E0,0E0,0E0,0E0,0E0,0E0],"parents":[2147483647,0,0,1,1,2,2,3,3,4,4,5,5,6,6,7,7,8,8,9,9,11,11,12,12,13,13,14,14],"right_children":[2,4,6,8,10,12,14,16,18,20,-1,22,24,26,28,-1,-1,-1,-1,-1,-1,-1,-1,-1,-1,-1,-1,-1,-1],"split_conditions":[2E0,-8.7625E1,2.1935625E3,-1.1439166E3,2.2785625E3,5.3583332E1,5E0,1.9E1,1.5958333E2,1.6389583E2,1.8731562E3,1.1E1,-2.7371562E3,8E0,5E0,2.9639907E3,5.5519478E3,1.0570475E3,7.3010273E3,4.3860146E3,1.2848367E4,-7.7371686E2,2.0775835E3,1.3773208E3,6.286882E3,4.344683E3,7.269375E1,-2.5481384E3,-5.6478457E3],"split_indices":[18,9,5,9,5,1,15,16,0,0,0,15,13,16,17,0,0,0,0,0,0,0,0,0,0,0,0,0,0],"split_type":[0,0,0,0,0,0,0,0,0,0,0,0,0,0,0,0,0,0,0,0,0,0,0,0,0,0,0,0,0],"sum_hessian":[5.17E2,9E1,4.27E2,7.4E1,1.6E1,1.08E2,3.19E2,2.9E1,4.5E1,1.5E1,1E0,7.4E1,3.4E1,6.4E1,2.55E2,1.9E1,1E1,4E0,4.1E1,2E0,1.3E1,4.7E1,2.7E1,1.1E1,2.3E1,1.4E1,5E1,1.78E2,7.7E1],"tree_param":{"num_deleted":"0","num_feature":"19","num_nodes":"29","size_leaf_vector":"1"}},{"base_weights":[3.689265E2,-2.9697594E4,1.2355051E5,-4.6910023E4,4.447192E4,1.0396215E5,1.3896468E4,-2.8882887E4,-8.53455E4,-2.1293633E4,8.228554E4,7.348026E4,1.5237555E5,1.5943282E3,-2.1136272E3,-5.006917E3,-1.1147416E3,-2.0257653E3,7.795324E2,3.136529E3,6.474288E3,6.4296014E2,4.4342188E3,2.0986335E3,7.889737E3],"categories":[],"categories_nodes":[],"categories_segments":[],"categories_sizes":[],"default_left":[0,0,0,0,0,0,0,0,0,0,0,0,0,0,0,0,0,0,0,0,0,0,0,0,0],"id":17,"left_children":[1,3,5,7,9,11,-1,13,15,17,19,21,23,-1,-1,-1,-1,-1,-1,-1,-1,-1,-1,-1,-1],"loss_changes":[1.9443772E12,5.4082722E11,2.8258075E11,2.3519343E11,2.0069886E11,1.260465E11,0E0,1.9256322E11,9.943155E10,2.1900984E10,3.8950207E10,5.3239316E10,1.4317191E10,0E0,0E0,0E0,0E0,0E0,0E0,0E0,0E0,0E0,0E0,0E0,0E0],"parents":[2147483647,0,0,1,1,2,2,3,3,4,4,5,5,7,7,8,8,9,9,10,10,11,11,12,12],"right_children":[2,4,6,8,10,12,-1,14,16,18,20,22,24,-1,-1,-1,-1,-1,-1,-1,-1,-1,-1,-1,-1],"split_conditions":[3.7285105E3,4.0694113E4,4.870977E4,5E0,-2.7371562E3,6.1428125E3,1.3896468E4,5E0,6.54E2,-1.9489375E3,1.1106469E4,2.607125E3,-1.58825E3,1.5943282E3,-2.1136272E3,-5.006917E3,-1.1147416E3,-2.0257653E3,7.795324E2,3.136529E3,6.474288E3,6.4296014E2,4.4342188E3,2.0986335E3,7.889737E3],"split_indices":[2,3,3,17,13,2,0,15,10,9,4,4,9,0,0,0,0,0,0,0,0,0,0,0,0],"split_type":[0,0,0,0,0,0,0,0,0,0,0,0,0,0,0,0,0,0,0,0,0,0,0,0,0],"sum_hessian":[5.23E2,4.21E2,1.02E2,3.42E2,7.9E1,9.2E1,1E1,2.34E2,1.08E2,2.9E1,5E1,5.8E1,3.4E1,4.2E1,1.92E2,8.7E1,2.1E1,1.9E1,1E1,3.7E1,1.3E1,1.2E1,4.6E1,2E0,3.2E1],"tree_param":{"num_deleted":"0","num_feature":"19","num_nodes":"25","size_leaf_vector":"1"}},{"base_weights":[3.6256753E3,-3.0128928E4,1.05862766E5,-4.4209902E4,4.646711E4,8.360206E4,2.3737011E5,-7.290639E4,-1.9420342E4,2.561912E4,1.5648436E5,2.587341E4,1.1932312E5,4.4242827E3,1.298778E4,-4.106919E3,-5.6315497E2,-1.9263196E3,6.1688995E2,-9.051667E1,3.6855586E3,2.7970334E3,8.731386E3,-4.5442413E2,3.801722E3,3.7835105E3,7.2691226E3],"categories":[],"categories_nodes":[],"categories_segments":[],"categories_sizes":[],"default_left":[0,0,0,0,0,0,0,0,0,0,0,0,0,0,0,0,0,0,0,0,0,0,0,0,0,0,0],"id":18,"left_children":[1,3,5,7,9,11,13,15,17,19,21,23,25,-1,-1,-1,-1,-1,-1,-1,-1,-1,-1,-1,-1,-1,-1],"loss_changes":[1.8770673E12,4.4318E11,3.753606E11,2.4471935E11,1.4278392E11,2.3818168E11,4.033957E10,9.012924E10,1.1394181E11,7.268608E10,8.4731986E9,8.136237E10,7.090366E10,0E0,0E0,0E0,0E0,0E0,0E0,0E0,0E0,0E0,0E0,0E0,0E0,0E0,0E0],"parents":[2147483647,0,0,1,1,2,2,3,3,4,4,5,5,6,6,7,7,8,8,9,9,10,10,11,11,12,12],"right_children":[2,4,6,8,10,12,14,16,18,20,22,24,26,-1,-1,-1,-1,-1,-1,-1,-1,-1,-1,-1,-1,-1,-1],"split_conditions":[4.1451395E4,2.9906667E3,4.8347707E4,3.57533E4,6.1428125E3,-1.9484166E3,1.10510414E2,9.380094E3,1.3864688E3,5.5536353E3,1.5922916E3,1.3833333E1,-1.0988541E3,4.4242827E3,1.298778E4,-4.106919E3,-5.6315497E2,-1.9263196E3,6.1688995E2,-9.051667E1,3.6855586E3,2.7970334E3,8.731386E3,-4.5442413E2,3.801722E3,3.7835105E3,7.2691226E3],"split_indices":[3,2,3,3,2,11,0,4,2,4,4,1,9,0,0,0,0,0,0,0,0,0,0,0,0,0,0],"split_type":[0,0,0,0,0,0,0,0,0,0,0,0,0,0,0,0,0,0,0,0,0,0,0,0,0,0,0],"sum_hessian":[5.42E2,4.08E2,1.34E2,3.45E2,6.3E1,1.16E2,1.8E1,1.59E2,1.86E2,5.4E1,9E0,4.5E1,7.1E1,3E0,1.5E1,1.38E2,2.1E1,1.16E2,7E1,3.5E1,1.9E1,2E0,7E0,2.7E1,1.8E1,2.8E1,4.3E1],"tree_param":{"num_deleted":"0","num_feature":"19","num_nodes":"27","size_leaf_vector":"1"}},{"base_weights":[-2.1431677E2,-3.5256844E4,9.2347766E4,4.545263E4,-4.892902E4,5.83964E4,1.5974123E5,-1.7390771E4,7.102476E4,3.3158623E3,-6.0164277E4,8.034765E4,-5.481971E3,1.2687703E4,1.3459481E5,9.7280316E2,-1.333812E3,2.9922708E3,5.758902E3,1.9035612E3,-1.697538E3,-3.296657E3,8.56905E1,2.8543313E3,5.1334536E3,3.635074E3,-1.3779526E3,3.6549355E3,7.384226E3],"categories":[],"categories_nodes":[],"categories_segments":[],"categories_sizes":[],"default_left":[0,0,0,0,0,0,0,0,0,0,0,0,0,0,0,0,0,0,0,0,0,0,0,0,0,0,0,0,0],"id":19,"left_children":[1,3,5,7,9,11,13,15,17,19,21,23,25,-1,27,-1,-1,-1,-1,-1,-1,-1,-1,-1,-1,-1,-1,-1,-1],"loss_changes":[1.7126381E12,4.2485455E11,3.2244616E11,9.12294E10,1.9273037E11,1.3785704E11,7.932215E10,6.335397E9,1.2851315E10,7.771022E10,9.649396E10,3.204196E10,4.688121E10,0E0,2.140301E10,0E0,0E0,0E0,0E0,0E0,0E0,0E0,0E0,0E0,0E0,0E0,0E0,0E0,0E0],"parents":[2147483647,0,0,1,1,2,2,3,3,4,4,5,5,6,6,7,7,8,8,9,9,10,10,11,11,12,12,14,14],"right_children":[2,4,6,8,10,12,14,16,18,20,22,24,26,-1,28,-1,-1,-1,-1,-1,-1,-1,-1,-1,-1,-1,-1,-1,-1],"split_conditions":[2.9906667E3,1.6846666E3,5.9329585E3,1.4949896E3,5E0,2.6818645E3,2E0,9.208125E2,6.2634375E2,7.8076044E2,8.6978125E2,4.9834272E3,4E0,1.2687703E4,4.7691666E2,9.7280316E2,-1.333812E3,2.9922708E3,5.758902E3,1.9035612E3,-1.697538E3,-3.296657E3,8.56905E1,2.8543313E3,5.1334536E3,3.635074E3,-1.3779526E3,3.6549355E3,7.384226E3],"split_indices":[2,5,2,2,15,5,15,5,7,6,6,8,15,0,10,0,0,0,0,0,0,0,0,0,0,0,0,0,0],"split_type":[0,0,0,0,0,0,0,0,0,0,0,0,0,0,0,0,0,0,0,0,0,0,0,0,0,0,0,0,0],"sum_hessian":[5.26E2,3.82E2,1.44E2,5.5E1,3.27E2,9.7E1,4.7E1,1.6E1,3.9E1,5.8E1,2.69E2,7.2E1,2.5E1,8E0,3.9E1,3E0,1.3E1,3.3E1,6E0,3E1,2.8E1,2.46E2,2.3E1,3.7E1,3.5E1,5E0,2E1,8E0,3.1E1],"tree_param":{"num_deleted":"0","num_feature":"19","num_nodes":"29","size_leaf_vector":"1"}},{"base_weights":[4.617199E3,-2.777451E4,9.8729664E4,5.3559305E4,-3.994189E4,2.7787605E4,1.3129455E5,3.3989938E4,8.865116E3,-9.238802E4,-2.8410688E4,-2.741586E4,5.9190066E4,1.09311625E5,2.1347297E5,-9.48067E2,2.1100688E3,-4.859123E3,1.312797E2,-1.7663424E3,1.8783236E3,-2.1473142E3,4.107146E2,-6.682719E2,3.1129333E3,3.4256477E3,6.4986323E3,2.8357688E3,1.1428942E4],"categories":[],"categories_nodes":[],"categories_segments":[],"categories_sizes":[],"default_left":[0,0,0,0,0,0,0,0,0,0,0,0,0,0,0,0,0,0,0,0,0,0,0,0,0,0,0,0,0],"id":20,"left_children":[1,3,5,7,9,11,13,15,-1,17,19,21,23,25,27,-1,-1,-1,-1,-1,-1,-1,-1,-1,-1,-1,-1,-1,-1],"loss_changes":[1.6550093E12,4.0194556E11,3.174721E11,1.22316866E11,2.1025312E11,7.963135E10,1.4828464E11,2.1236093E10,0E0,2.8954034E10,1.3365659E11,9.759744E9,7.288799E9,5.6001757E10,3.2027378E10,0E0,0E0,0E0,0E0,0E0,0E0,0E0,0E0,0E0,0E0,0E0,0E0,0E0,0E0],"parents":[2147483647,0,0,1,1,2,2,3,3,4,4,5,5,6,6,7,7,9,9,10,10,11,11,12,12,13,13,14,14],"right_children":[2,4,6,8,10,12,14,16,-1,18,20,22,24,26,28,-1,-1,-1,-1,-1,-1,-1,-1,-1,-1,-1,-1,-1,-1],"split_conditions":[4.1451395E4,4E0,-2.1749583E3,2.926979E2,3.2467844E4,-3.4609375E3,4.830649E4,-2.7366667E3,8.865116E3,7.534167E2,1.1E1,-1.9489375E3,-2.10575E3,-1.1403334E3,1.13447914E2,-9.48067E2,2.1100688E3,-4.859123E3,1.312797E2,-1.7663424E3,1.8783236E3,-2.1473142E3,4.107146E2,-6.682719E2,3.1129333E3,3.4256477E3,6.4986323E3,2.8357688E3,1.1428942E4],"split_indices":[3,15,13,1,3,13,3,13,0,9,15,9,9,9,0,0,0,0,0,0,0,0,0,0,0,0,0,0,0],"split_type":[0,0,0,0,0,0,0,0,0,0,0,0,0,0,0,0,0,0,0,0,0,0,0,0,0,0,0,0,0],"sum_hessian":[5.41E2,4.03E2,1.38E2,5.2E1,3.51E2,4.4E1,9.4E1,4.6E1,6E0,6.2E1,2.89E2,1.6E1,2.8E1,7.6E1,1.8E1,6E0,4E1,5.9E1,3E0,2.62E2,2.7E1,1.1E1,5E0,1E0,2.7E1,2.7E1,4.9E1,2E0,1.6E1],"tree_param":{"num_deleted":"0","num_feature":"19","num_nodes":"29","size_leaf_vector":"1"}},{"base_weights":[3.879025E3,-2.6089203E4,9.463661E4,-5.4029363E4,1.440481E4,6.005687E4,1.4934123E5,-3.1449068E4,-8.2646664E4,-5.7766826E3,8.182457E4,4.4048496E4,1.2633997E5,1.254396E5,2.2702556E5,-2.0889636E3,1.2459176E3,-4.794262E3,-2.186654E3,-9.941587E2,2.0184762E3,2.9558677E3,6.712523E3,6.301186E2,3.5877214E3,4.9983955E3,9.02321E3,1.837535E3,6.690407E3,3.3213125E3,1.1822144E4],"categories":[],"categories_nodes":[],"categories_segments":[],"categories_sizes":[],"default_left":[0,0,0,0,0,0,0,0,0,0,0,0,0,0,0,0,0,0,0,0,0,0,0,0,0,0,0,0,0,0,0],"id":21,"left_children":[1,3,5,7,9,11,13,15,17,19,21,23,25,27,29,-1,-1,-1,-1,-1,-1,-1,-1,-1,-1,-1,-1,-1,-1,-1,-1],"loss_changes":[1.4902235E12,4.669189E11,2.4829847E11,1.550705E11,2.304194E11,8.4627096E10,6.8074734E10,8.1396695E10,5.092881E10,8.607857E10,3.849085E10,6.008283E10,4.7972516E9,2.625477E10,9.3054566E8,0E0,0E0,0E0,0E0,0E0,0E0,0E0,0E0,0E0,0E0,0E0,0E0,0E0,0E0,0E0,0E0],"parents":[2147483647,0,0,1,1,2,2,3,3,4,4,5,5,6,6,7,7,8,8,9,9,10,10,11,11,12,12,13,13,14,14],"right_children":[2,4,6,8,10,12,14,16,18,20,22,24,26,28,30,-1,-1,-1,-1,-1,-1,-1,-1,-1,-1,-1,-1,-1,-1,-1,-1],"split_conditions":[3.0937083E3,3.8466594E4,6.0295938E3,5E0,7.5738228E3,4.6505688E4,4.7334625E4,9.140219E3,5.8758438E3,-1.4980834E3,4.55607E4,4.2070625E3,-1.035E2,-1.8966667E2,-1.0205833E3,-2.0889636E3,1.2459176E3,-4.794262E3,-2.186654E3,-9.941587E2,2.0184762E3,2.9558677E3,6.712523E3,6.301186E2,3.5877214E3,4.9983955E3,9.02321E3,1.837535E3,6.690407E3,3.3213125E3,1.1822144E4],"split_indices":[2,3,2,17,8,3,3,4,4,13,3,4,13,10,9,0,0,0,0,0,0,0,0,0,0,0,0,0,0,0,0],"split_type":[0,0,0,0,0,0,0,0,0,0,0,0,0,0,0,0,0,0,0,0,0,0,0,0,0,0,0,0,0,0,0],"sum_hessian":[5.46E2,4.11E2,1.35E2,2.43E2,1.68E2,8.4E1,5.1E1,1.37E2,1.06E2,1.3E2,3.8E1,6.9E1,1.5E1,4.1E1,1E1,1.16E2,2.1E1,7.8E1,2.8E1,1E2,3E1,2.8E1,1E1,3.3E1,3.6E1,1.2E1,3E0,4E0,3.7E1,1E0,9E0],"tree_param":{"num_deleted":"0","num_feature":"19","num_nodes":"31","size_leaf_vector":"1"}},{"base_weights":[6.70818E1,-2.5600312E4,8.3639586E4,-4.6839418E4,2.0533875E4,4.78447E4,1.3637502E5,-3.1200035E4,-7.828903E4,-6.0658965E3,9.214658E4,-1.1225515E4,6.3783848E4,1.0198178E5,1.9185289E5,2.8725947E3,-1.7219149E3,5.64425E2,-4.289941E3,-2.4347793E3,1.0984242E3,3.472205E3,8.004346E3,-2.7225417E3,5.6613025E2,2.786266E3,5.8418813E3,6.016533E3,1.9840674E3,5.2336104E3,1.0464254E4],"categories":[],"categories_nodes":[],"categories_segments":[],"categories_sizes":[],"default_left":[0,0,0,0,0,0,0,0,0,0,0,0,0,0,0,0,0,0,0,0,0,0,0,0,0,0,0,0,0,0,0],"id":22,"left_children":[1,3,5,7,9,11,13,15,17,19,21,23,25,27,29,-1,-1,-1,-1,-1,-1,-1,-1,-1,-1,-1,-1,-1,-1,-1,-1],"loss_changes":[1.1411832E12,3.9976023E11,2.294325E11,1.3478422E11,2.4628865E11,7.22722E10,7.5837735E10,5.594923E10,6.285761E10,1.1460398E11,4.2867393E10,1.718557E10,1.914128E10,3.2948847E10,5.4491873E9,0E0,0E0,0E0,0E0,0E0,0E0,0E0,0E0,0E0,0E0,0E0,0E0,0E0,0E0,0E0,0E0],"parents":[2147483647,0,0,1,1,2,2,3,3,4,4,5,5,6,6,7,7,8,8,9,9,10,10,11,11,12,12,13,13,14,14],"right_children":[2,4,6,8,10,12,14,16,18,20,22,24,26,28,30,-1,-1,-1,-1,-1,-1,-1,-1,-1,-1,-1,-1,-1,-1,-1,-1],"split_conditions":[4.1451395E4,3.043125E2,-8.05875E2,5E0,2.3602083E2,-3.4609375E3,-3.1664584E2,2E0,2E0,3.4556605E4,2.6938855E3,6.9234375E2,4.830649E4,1.83925E3,-1.5611875E3,2.8725947E3,-1.7219149E3,5.64425E2,-4.289941E3,-2.4347793E3,1.0984242E3,3.472205E3,8.004346E3,-2.7225417E3,5.6613025E2,2.786266E3,5.8418813E3,6.016533E3,1.9840674E3,5.2336104E3,1.0464254E4],"split_indices":[3,10,13,17,13,13,9,18,18,3,13,2,3,13,12,0,0,0,0,0,0,0,0,0,0,0,0,0,0,0,0],"split_type":[0,0,0,0,0,0,0,0,0,0,0,0,0,0,0,0,0,0,0,0,0,0,0,0,0,0,0,0,0,0,0],"sum_hessian":[5.3E2,4.06E2,1.24E2,2.78E2,1.28E2,7.5E1,4.9E1,1.87E2,9.1E1,9.4E1,3.4E1,1.6E1,5.9E1,3.2E1,1.7E1,6E0,1.81E2,7E0,8.4E1,3.7E1,5.7E1,2.7E1,7E0,5E0,1.1E1,5.3E1,6E0,2.4E1,8E0,4E0,1.3E1],"tree_param":{"num_deleted":"0","num_feature":"19","num_nodes":"31","size_leaf_vector":"1"}},{"base_weights":[1.4508745E3,-2.4722922E4,8.2519695E4,2.8044598E4,-4.1725477E4,3.522889E4,1.1150265E5,1.3980536E4,9.211884E4,-5.5704418E4,5.644671E3,4.937717E3,8.758E4,6.703546E4,1.3862094E5,-1.6554254E3,1.3662323E3,3.388652E3,7.0931675E3,-1.9852938E3,-4.529256E3,-8.285295E2,1.6200604E3,-3.824138E2,3.2473533E3,2.2094448E3,5.210376E3,1.034925E3,3.6356511E3,5.8006553E3,9.702113E3],"categories":[],"categories_nodes":[],"categories_segments":[],"categories_sizes":[],"default_left":[0,0,0,0,0,0,0,0,0,0,0,0,0,0,0,0,0,0,0,0,0,0,0,0,0,0,0,0,0,0,0],"id":23,"left_children":[1,3,5,7,9,11,13,15,17,19,21,23,25,27,29,-1,-1,-1,-1,-1,-1,-1,-1,-1,-1,-1,-1,-1,-1,-1,-1],"loss_changes":[1.1563422E12,3.7080937E11,1.783654E11,8.972769E10,2.0691603E11,8.202794E10,8.958909E10,5.368703E10,1.2184764E10,1.3089092E11,4.333395E10,2.6176156E10,9.103426E9,7.176618E9,4.0136344E10,0E0,0E0,0E0,0E0,0E0,0E0,0E0,0E0,0E0,0E0,0E0,0E0,0E0,0E0,0E0,0E0],"parents":[2147483647,0,0,1,1,2,2,3,3,4,4,5,5,6,6,7,7,8,8,9,9,10,10,11,11,12,12,13,13,14,14],"right_children":[2,4,6,8,10,12,14,16,18,20,22,24,26,28,30,-1,-1,-1,-1,-1,-1,-1,-1,-1,-1,-1,-1,-1,-1,-1,-1],"split_conditions":[4.1451395E4,5E0,-1.9484166E3,2.4825E2,1E1,4.575902E4,-1.1013125E3,3.3429074E4,-3.9454166E2,5E0,1.1E1,9.650917E3,5.8013335E3,2.709177E3,4.7722645E4,-1.6554254E3,1.3662323E3,3.388652E3,7.0931675E3,-1.9852938E3,-4.529256E3,-8.285295E2,1.6200604E3,-3.824138E2,3.2473533E3,2.2094448E3,5.210376E3,1.034925E3,3.6356511E3,5.8006553E3,9.702113E3],"split_indices":[3,15,11,0,15,3,9,3,9,17,15,4,4,4,3,0,0,0,0,0,0,0,0,0,0,0,0,0,0,0,0],"split_type":[0,0,0,0,0,0,0,0,0,0,0,0,0,0,0,0,0,0,0,0,0,0,0,0,0,0,0,0,0,0,0],"sum_hessian":[5.43E2,4.11E2,1.32E2,1E2,3.11E2,5.1E1,8.1E1,8.3E1,1.7E1,2.4E2,7.1E1,3.3E1,1.8E1,3.2E1,4.9E1,1.8E1,6.5E1,1.3E1,4E0,1.66E2,7.4E1,3.9E1,3.2E1,2.8E1,5E0,6E0,1.2E1,4E0,2.8E1,3.7E1,1.2E1],"tree_param":{"num_deleted":"0","num_feature":"19","num_nodes":"31","size_leaf_vector":"1"}},{"base_weights":[-4.130428E2,-2.4289932E4,8.4062445E4,-3.7336742E4,2.4108186E4,3.7165258E4,1.1990556E5,-5.16402E4,-4.5775654E3,2.513239E3,9.074196E4,-3.3079856E3,4.2514465E4,9.8729016E4,9.651093E3,-3.2579546E3,-1.1878097E3,1.452485E3,-9.167142E2,-1.6531621E3,8.854507E2,3.2522837E3,6.82566E3,1.5365096E3,3.5731804E3,5.921272E3,3.6481328E3],"categories":[],"categories_nodes":[],"categories_segments":[],"categories_sizes":[],"default_left":[0,0,0,0,0,0,0,0,0,0,0,0,0,0,0,0,0,0,0,0,0,0,0,0,0,0,0],"id":24,"left_children":[1,3,5,7,9,11,13,15,17,19,21,-1,23,25,-1,-1,-1,-1,-1,-1,-1,-1,-1,-1,-1,-1,-1],"loss_changes":[1.08921133E12,2.6673678E11,1.9557568E11,1.5532871E11,1.2927769E11,3.210621E10,8.468254E10,8.5529985E10,4.771789E10,3.788776E10,1.6995729E10,0E0,1.5202288E10,1.876466E10,0E0,0E0,0E0,0E0,0E0,0E0,0E0,0E0,0E0,0E0,0E0,0E0,0E0],"parents":[2147483647,0,0,1,1,2,2,3,3,4,4,5,5,6,6,7,7,8,8,9,9,10,10,12,12,13,13],"right_children":[2,4,6,8,10,12,14,16,18,20,22,-1,24,26,-1,-1,-1,-1,-1,-1,-1,-1,-1,-1,-1,-1,-1],"split_conditions":[4.20443E4,6.62375E2,-1.6566875E3,3.8466594E4,1.9902083E2,6.2403125E2,4.870977E4,2.0319166E3,1.9922604E3,-2.4693125E3,3.6381824E4,-3.3079856E3,4.591177E4,2.024E3,9.651093E3,-3.2579546E3,-1.1878097E3,1.452485E3,-9.167142E2,-1.6531621E3,8.854507E2,3.2522837E3,6.82566E3,1.5365096E3,3.5731804E3,5.921272E3,3.6481328E3],"split_indices":[3,10,13,3,13,2,3,2,5,13,3,0,3,14,0,0,0,0,0,0,0,0,0,0,0,0,0],"split_type":[0,0,0,0,0,0,0,0,0,0,0,0,0,0,0,0,0,0,0,0,0,0,0,0,0,0,0],"sum_hessian":[5.38E2,4.2E2,1.18E2,3.31E2,8.9E1,5.2E1,6.6E1,2.3E2,1.01E2,6.8E1,2.1E1,2E0,5E1,5.3E1,1.3E1,1.54E2,7.6E1,2.9E1,7.2E1,2E1,4.8E1,1.5E1,6E0,3.7E1,1.3E1,2.8E1,2.5E1],"tree_param":{"num_deleted":"0","num_feature":"19","num_nodes":"27","size_leaf_vector":"1"}},{"base_weights":[2.7007004E3,-1.5897622E4,1.0943551E5,3.9862727E4,-2.9944867E4,8.205035E4,1.611669E5,-2.148291E4,5.3685566E4,1.7614207E4,-4.4307434E4,2.0528982E4,8.9164625E4,9.401828E4,1.8449167E5,-2.699409E3,-4.1696964E2,1.6111207E3,4.224734E3,1.8020488E3,-1.1250404E3,-1.480441E3,-4.0571042E3,-3.877667E2,1.6696887E3,1.163184E3,4.8909546E3,5.531114E3,2.280386E3,9.950216E3,4.015911E3],"categories":[],"categories_nodes":[],"categories_segments":[],"categories_sizes":[],"default_left":[0,0,0,0,0,0,0,0,0,0,0,0,0,0,0,0,0,0,0,0,0,0,0,0,0,0,0,0,0,0,0],"id":25,"left_children":[1,3,5,7,9,11,13,15,17,19,21,23,25,27,29,-1,-1,-1,-1,-1,-1,-1,-1,-1,-1,-1,-1,-1,-1,-1,-1],"loss_changes":[1.0836129E12,3.6541855E11,1.015266E11,8.086259E10,2.5488261E11,2.2241903E10,2.4942543E10,7.239974E9,4.8194454E10,6.5120494E10,1.5244316E11,2.8060826E9,2.567091E10,2.1890499E9,1.2741181E10,0E0,0E0,0E0,0E0,0E0,0E0,0E0,0E0,0E0,0E0,0E0,0E0,0E0,0E0,0E0,0E0],"parents":[2147483647,0,0,1,1,2,2,3,3,4,4,5,5,6,6,7,7,8,8,9,9,10,10,11,11,12,12,13,13,14,14],"right_children":[2,4,6,8,10,12,14,16,18,20,22,24,26,28,30,-1,-1,-1,-1,-1,-1,-1,-1,-1,-1,-1,-1,-1,-1,-1,-1],"split_conditions":[4.6939897E3,1.7351562E3,-8.7625E1,1.4533125E3,5E0,-1.81925E3,6.716625E3,2.9021875E2,-8.05875E2,5E0,5E0,1.31875E1,6.6526044E2,1.4227188E3,-9.291875E2,-2.699409E3,-4.1696964E2,1.6111207E3,4.224734E3,1.8020488E3,-1.1250404E3,-1.480441E3,-4.0571042E3,-3.877667E2,1.6696887E3,1.163184E3,4.8909546E3,5.531114E3,2.280386E3,9.950216E3,4.015911E3],"split_indices":[2,5,9,2,15,12,2,7,13,17,17,7,6,5,11,0,0,0,0,0,0,0,0,0,0,0,0,0,0,0,0],"split_type":[0,0,0,0,0,0,0,0,0,0,0,0,0,0,0,0,0,0,0,0,0,0,0,0,0,0,0,0,0,0,0],"sum_hessian":[5.44E2,4.64E2,8E1,9.3E1,3.71E2,5.4E1,2.6E1,1.7E1,7.6E1,8.6E1,2.85E2,6E0,4.8E1,8E0,1.8E1,4E0,1.3E1,4.6E1,3E1,5.9E1,2.7E1,2.05E2,8E1,2E0,4E0,6E0,4.2E1,5E0,3E0,1.5E1,3E0],"tree_param":{"num_deleted":"0","num_feature":"19","num_nodes":"31","size_leaf_vector":"1"}},{"base_weights":[2.0179025E3,-1.4839049E4,1.0028742E5,2.8166008E4,-3.2835367E4,8.3376414E4,9.708692E3,-1.927576E4,4.4653844E4,-1.8722205E4,-7.052628E4,5.587356E4,1.05507375E5,5.1659943E1,-2.49065E3,1.5817036E3,4.201127E3,-1.3412272E3,7.311283E2,-3.9912517E3,-1.0595283E3,1.6591722E3,3.697114E3,3.1013901E3,6.1078643E3],"categories":[],"categories_nodes":[],"categories_segments":[],"categories_sizes":[],"default_left":[0,0,0,0,0,0,0,0,0,0,0,0,0,0,0,0,0,0,0,0,0,0,0,0,0],"id":26,"left_children":[1,3,5,7,9,11,-1,13,15,17,19,21,23,-1,-1,-1,-1,-1,-1,-1,-1,-1,-1,-1,-1],"loss_changes":[8.711635E11,3.4842064E11,1.0606458E11,1.0489495E11,1.6730397E11,3.4885435E10,0E0,2.175775E10,4.8086598E10,6.307183E10,3.776181E10,1.0665746E10,1.8484363E10,0E0,0E0,0E0,0E0,0E0,0E0,0E0,0E0,0E0,0E0,0E0,0E0],"parents":[2147483647,0,0,1,1,2,2,3,3,4,4,5,5,7,7,8,8,9,9,10,10,11,11,12,12],"right_children":[2,4,6,8,10,12,-1,14,16,18,20,22,24,-1,-1,-1,-1,-1,-1,-1,-1,-1,-1,-1,-1],"split_conditions":[4.6939897E3,2.1935625E3,4.799028E4,1.4533125E3,5E0,6.1428125E3,9.708692E3,5E0,4.575902E4,5.0533334E2,9.093333E2,2.2683855E3,5.34875E2,5.1659943E1,-2.49065E3,1.5817036E3,4.201127E3,-1.3412272E3,7.311283E2,-3.9912517E3,-1.0595283E3,1.6591722E3,3.697114E3,3.1013901E3,6.1078643E3],"split_indices":[2,5,3,2,17,2,0,17,3,10,10,8,10,0,0,0,0,0,0,0,0,0,0,0,0],"split_type":[0,0,0,0,0,0,0,0,0,0,0,0,0,0,0,0,0,0,0,0,0,0,0,0,0],"sum_hessian":[5.24E2,4.48E2,7.6E1,1.32E2,3.16E2,6.6E1,1E1,3.4E1,9.8E1,2.31E2,8.5E1,3.1E1,3.5E1,2.1E1,1.3E1,7.5E1,2.3E1,1.86E2,4.5E1,7.1E1,1.4E1,1.5E1,1.6E1,1.1E1,2.4E1],"tree_param":{"num_deleted":"0","num_feature":"19","num_nodes":"25","size_leaf_vector":"1"}},{"base_weights":[-3.400978E2,-2.5660908E4,6.0556207E4,1.9645818E4,-3.864888E4,5.0577617E3,8.36768E4,-7.4832783E3,7.509754E4,-4.968449E4,1.2937994E3,-1.6608154E4,4.681761E4,6.919304E4,1.689705E5,4.3288345E2,-1.8935797E3,1.9066559E3,5.352773E3,-2.0085497E3,-4.8720815E3,-9.887075E2,8.946172E2,-3.936038E2,-2.7304246E3,1.0695907E3,2.7814521E3,2.3061616E3,4.480063E3,2.270825E3,8.708983E3],"categories":[],"categories_nodes":[],"categories_segments":[],"categories_sizes":[],"default_left":[0,0,0,0,0,0,0,0,0,0,0,0,0,0,0,0,0,0,0,0,0,0,0,0,0,0,0,0,0,0,0],"id":27,"left_children":[1,3,5,7,9,11,13,15,17,19,21,23,25,27,29,-1,-1,-1,-1,-1,-1,-1,-1,-1,-1,-1,-1,-1,-1,-1,-1],"loss_changes":[8.557908E11,2.3142873E11,2.087313E11,1.3294521E11,1.3450576E11,4.5111054E10,1.303764E11,2.9757647E10,3.0175527E10,1.04672264E11,2.3783524E10,1.0525255E10,2.6186383E9,4.2948657E10,2.3871816E9,0E0,0E0,0E0,0E0,0E0,0E0,0E0,0E0,0E0,0E0,0E0,0E0,0E0,0E0,0E0,0E0],"parents":[2147483647,0,0,1,1,2,2,3,3,4,4,5,5,6,6,7,7,8,8,9,9,10,10,11,11,12,12,13,13,14,14],"right_children":[2,4,6,8,10,12,14,16,18,20,22,24,26,28,30,-1,-1,-1,-1,-1,-1,-1,-1,-1,-1,-1,-1,-1,-1,-1,-1],"split_conditions":[4.0327355E4,5E0,1.5567708E2,5.694167E2,1E1,4.43435E4,4.830649E4,5E0,-7.2325E2,6E0,-4.3091666E2,5E0,4.7010355E4,-1.3235938E3,1.8882292E2,4.3288345E2,-1.8935797E3,1.9066559E3,5.352773E3,-2.0085497E3,-4.8720815E3,-9.887075E2,8.946172E2,-3.936038E2,-2.7304246E3,1.0695907E3,2.7814521E3,2.3061616E3,4.480063E3,2.270825E3,8.708983E3],"split_indices":[3,15,0,13,15,3,3,17,9,17,10,17,3,12,0,0,0,0,0,0,0,0,0,0,0,0,0,0,0,0,0],"split_type":[0,0,0,0,0,0,0,0,0,0,0,0,0,0,0,0,0,0,0,0,0,0,0,0,0,0,0,0,0,0,0],"sum_hessian":[5.53E2,3.91E2,1.62E2,8.7E1,3.04E2,4.8E1,1.14E2,5.9E1,2.8E1,2.38E2,6.6E1,3.2E1,1.6E1,9.9E1,1.5E1,3.9E1,2E1,1.4E1,1.4E1,2E2,3.8E1,2.9E1,3.7E1,2.7E1,5E0,5E0,1.1E1,4.8E1,5.1E1,1E0,1.4E1],"tree_param":{"num_deleted":"0","num_feature":"19","num_nodes":"31","size_leaf_vector":"1"}},{"base_weights":[-4.47171E2,-1.9823854E4,6.821028E4,-3.801204E4,8.0821685E3,3.6621125E4,1.0917554E5,-5.6242098E4,-8.372024E3,-8.0685044E3,6.142171E4,-2.8265803E4,4.346682E4,1.6909055E5,8.35543E4,-3.4885742E3,-1.3352773E3,-9.6350385E2,1.085502E3,-1.0349385E3,2.189286E3,1.4861162E3,4.1562397E3,-2.5766047E3,1.0334688E2,1.7964586E3,4.824082E3,1.3164062E3,8.902352E3,5.3598804E3,1.5829573E3],"categories":[],"categories_nodes":[],"categories_segments":[],"categories_sizes":[],"default_left":[0,0,0,0,0,0,0,0,0,0,0,0,0,0,0,0,0,0,0,0,0,0,0,0,0,0,0,0,0,0,0],"id":28,"left_children":[1,3,5,7,9,11,13,15,17,19,21,23,25,27,29,-1,-1,-1,-1,-1,-1,-1,-1,-1,-1,-1,-1,-1,-1,-1,-1],"loss_changes":[7.011182E11,2.0891433E11,1.4611254E11,1.34073614E11,1.4091511E11,3.098977E10,6.262666E10,5.9676885E10,3.1890596E10,8.34278E10,2.3672373E10,5.0466253E9,2.0909523E10,1.3213467E10,4.2004234E10,0E0,0E0,0E0,0E0,0E0,0E0,0E0,0E0,0E0,0E0,0E0,0E0,0E0,0E0,0E0,0E0],"parents":[2147483647,0,0,1,1,2,2,3,3,4,4,5,5,6,6,7,7,8,8,9,9,10,10,11,11,12,12,13,13,14,14],"right_children":[2,4,6,8,10,12,14,16,18,20,22,24,26,28,30,-1,-1,-1,-1,-1,-1,-1,-1,-1,-1,-1,-1,-1,-1,-1,-1],"split_conditions":[4.20443E4,1.8562812E3,-8.05875E2,3.8057832E4,5.3698956E2,-4.407896E3,2E0,5.4710835E3,4.8657188E3,4.6461562E3,-7.780417E2,1.3633333E2,4.830649E4,2.0319166E3,5E0,-3.4885742E3,-1.3352773E3,-9.6350385E2,1.085502E3,-1.0349385E3,2.189286E3,1.4861162E3,4.1562397E3,-2.5766047E3,1.0334688E2,1.7964586E3,4.824082E3,1.3164062E3,8.902352E3,5.3598804E3,1.5829573E3],"split_indices":[3,2,13,3,13,13,15,8,8,8,12,7,3,2,17,0,0,0,0,0,0,0,0,0,0,0,0,0,0,0,0],"split_type":[0,0,0,0,0,0,0,0,0,0,0,0,0,0,0,0,0,0,0,0,0,0,0,0,0,0,0,0,0,0,0],"sum_hessian":[5.25E2,4.1E2,1.15E2,2.48E2,1.62E2,6.6E1,4.9E1,1.53E2,9.5E1,1.25E2,3.7E1,6E0,6E1,1.3E1,3.6E1,1.04E2,4.9E1,7E1,2.5E1,1.01E2,2.4E1,1.6E1,2.1E1,3E0,3E0,5.4E1,6E0,1E0,1.2E1,2.4E1,1.2E1],"tree_param":{"num_deleted":"0","num_feature":"19","num_nodes":"31","size_leaf_vector":"1"}},{"base_weights":[2.4286082E3,-1.2225354E4,8.955959E4,-2.260681E4,3.9436227E4,6.3698523E4,1.3783714E5,1.2684708E4,-3.4169613E4,4.0460845E3,7.041181E4,3.2421535E4,7.7963875E4,8.600074E3,9.62676E4,1.5889401E3,-9.7455664E2,-1.3043712E3,-4.0443513E3,1.3417122E3,-8.3327814E2,2.4270342E3,5.0775835E3,5.587525E2,2.6213174E3,3.2847688E3,6.31562E3,2.477571E3,5.835766E3],"categories":[],"categories_nodes":[],"categories_segments":[],"categories_sizes":[],"default_left":[0,0,0,0,0,0,0,0,0,0,0,0,0,0,0,0,0,0,0,0,0,0,0,0,0,0,0,0,0],"id":29,"left_children":[1,3,5,7,9,11,13,15,17,19,21,23,25,-1,27,-1,-1,-1,-1,-1,-1,-1,-1,-1,-1,-1,-1,-1,-1],"loss_changes":[6.829137E11,2.465272E11,8.735516E10,1.5631576E11,8.412485E10,2.0673495E10,2.036695E10,5.8984407E10,1.0663261E11,1.7910477E10,2.299424E10,7.064707E9,1.2462588E10,0E0,7.589937E9,0E0,0E0,0E0,0E0,0E0,0E0,0E0,0E0,0E0,0E0,0E0,0E0,0E0,0E0],"parents":[2147483647,0,0,1,1,2,2,3,3,4,4,5,5,6,6,7,7,8,8,9,9,10,10,11,11,12,12,14,14],"right_children":[2,4,6,8,10,12,14,16,18,20,22,24,26,-1,28,-1,-1,-1,-1,-1,-1,-1,-1,-1,-1,-1,-1,-1,-1],"split_conditions":[4.6939897E3,7.5738228E3,-2.0764583E2,5E0,1.867E3,-1.0988541E3,6.855E2,5E0,6E0,3E0,-1.1000729E3,4.7557188E3,5E0,8.600074E3,2.3533333E2,1.5889401E3,-9.7455664E2,-1.3043712E3,-4.0443513E3,1.3417122E3,-8.3327814E2,2.4270342E3,5.0775835E3,5.587525E2,2.6213174E3,3.2847688E3,6.31562E3,2.477571E3,5.835766E3],"split_indices":[2,8,9,15,2,9,6,17,17,18,13,4,17,0,0,0,0,0,0,0,0,0,0,0,0,0,0,0,0],"split_type":[0,0,0,0,0,0,0,0,0,0,0,0,0,0,0,0,0,0,0,0,0,0,0,0,0,0,0,0,0],"sum_hessian":[5.33E2,4.57E2,7.6E1,3.81E2,7.6E1,5.1E1,2.5E1,9.4E1,2.87E2,3.6E1,4E1,1.7E1,3.4E1,1.2E1,1.3E1,5.9E1,3.5E1,2.46E2,4.1E1,1.7E1,1.9E1,2.5E1,1.5E1,9E0,8E0,2.9E1,5E0,5E0,8E0],"tree_param":{"num_deleted":"0","num_feature":"19","num_nodes":"29","size_leaf_vector":"1"}},{"base_weights":[1.3991823E3,-2.1663074E4,5.1940293E4,-2.4782305E4,1.0863243E5,2.247088E4,8.6347695E4,-8.346025E4,-1.9905799E4,2.2079016E3,6.6754976E3,-3.580868E3,5.4810688E4,7.3760266E4,1.4457922E5,-4.4939917E3,-1.123639E3,-1.6074213E3,5.3652096E1,-6.826757E2,1.5985902E3,2.1659487E3,4.362614E3,8.037021E2,3.9076562E3,1.6826272E3,8.084419E3],"categories":[],"categories_nodes":[],"categories_segments":[],"categories_sizes":[],"default_left":[0,0,0,0,0,0,0,0,0,0,0,0,0,0,0,0,0,0,0,0,0,0,0,0,0,0,0],"id":30,"left_children":[1,3,5,7,9,11,13,15,17,-1,-1,19,21,23,25,-1,-1,-1,-1,-1,-1,-1,-1,-1,-1,-1,-1],"loss_changes":[6.398696E11,1.559132E11,1.7246179E11,1.0392553E11,8.540127E9,7.939208E10,4.7241626E10,8.942551E9,8.787245E10,0E0,0E0,1.9416332E10,1.1878302E10,1.5722021E10,1.9231015E10,0E0,0E0,0E0,0E0,0E0,0E0,0E0,0E0,0E0,0E0,0E0,0E0],"parents":[2147483647,0,0,1,1,2,2,3,3,4,4,5,5,6,6,7,7,8,8,11,11,12,12,13,13,14,14],"right_children":[2,4,6,8,10,12,14,16,18,-1,-1,20,22,24,26,-1,-1,-1,-1,-1,-1,-1,-1,-1,-1,-1,-1],"split_conditions":[4.0327355E4,7.6290312E3,-1.3154479E3,3.0353062E4,4.731146E2,5.408354E3,4.830649E4,1.0451219E4,5.2220938E3,2.2079016E3,6.6754976E3,4.1884272E3,4.7206426E4,-1.4890416E3,1.13447914E2,-4.4939917E3,-1.123639E3,-1.6074213E3,5.3652096E1,-6.826757E2,1.5985902E3,2.1659487E3,4.362614E3,8.037021E2,3.9076562E3,1.6826272E3,8.084419E3],"split_indices":[3,2,13,3,1,4,3,4,4,0,0,2,3,10,0,0,0,0,0,0,0,0,0,0,0,0,0],"split_type":[0,0,0,0,0,0,0,0,0,0,0,0,0,0,0,0,0,0,0,0,0,0,0,0,0,0,0],"sum_hessian":[5.47E2,3.76E2,1.71E2,3.68E2,8E0,9.3E1,7.8E1,2.7E1,3.41E2,3E0,5E0,5.2E1,4.1E1,6.6E1,1.2E1,2.4E1,3E0,2.15E2,1.26E2,4.1E1,1.1E1,3.2E1,9E0,5E0,6.1E1,2E0,1E1],"tree_param":{"num_deleted":"0","num_feature":"19","num_nodes":"27","size_leaf_vector":"1"}},{"base_weights":[5.9715393E1,-1.8770113E4,5.2163766E4,-4.614129E4,-1.3667072E3,3.2987973E4,9.062709E4,-6.767748E4,-2.8035426E4,-1.0601307E4,4.551533E4,4.6671807E3,5.7480223E4,3.342639E4,9.957779E4,-3.7394285E3,-1.3241097E3,-2.1647534E3,4.63495E1,-7.779709E2,2.960767E3,1.422098E3,5.153021E3,-2.7151892E2,1.9103705E3,1.7726478E3,3.4373423E3,2.0409376E1,1.9042483E3,5.382275E3,1.7287635E3],"categories":[],"categories_nodes":[],"categories_segments":[],"categories_sizes":[],"default_left":[0,0,0,0,0,0,0,0,0,0,0,0,0,0,0,0,0,0,0,0,0,0,0,0,0,0,0,0,0,0,0],"id":31,"left_children":[1,3,5,7,9,11,13,15,17,19,21,23,25,27,29,-1,-1,-1,-1,-1,-1,-1,-1,-1,-1,-1,-1,-1,-1,-1,-1],"loss_changes":[5.396087E11,1.9238306E11,1.0469484E11,5.932181E10,1.0785085E11,6.8402086E10,2.1246804E10,1.8818433E10,3.8490305E10,7.292237E10,3.7350785E10,1.612518E10,1.0715873E10,1.2149955E9,1.777936E10,0E0,0E0,0E0,0E0,0E0,0E0,0E0,0E0,0E0,0E0,0E0,0E0,0E0,0E0,0E0,0E0],"parents":[2147483647,0,0,1,1,2,2,3,3,4,4,5,5,6,6,7,7,8,8,9,9,10,10,11,11,12,12,13,13,14,14],"right_children":[2,4,6,8,10,12,14,16,18,20,22,24,26,28,30,-1,-1,-1,-1,-1,-1,-1,-1,-1,-1,-1,-1,-1,-1,-1,-1],"split_conditions":[3.0534167E3,3.546799E4,5.9329585E3,1.2392604E3,7.754375E3,4.294854E3,2.0716667E2,7.288333E2,4.9859897E3,7.571667E2,-2.286875E2,4.465498E4,2.5196875E2,3.9471875E4,1.0389791E3,-3.7394285E3,-1.3241097E3,-2.1647534E3,4.63495E1,-7.779709E2,2.960767E3,1.422098E3,5.153021E3,-2.7151892E2,1.9103705E3,1.7726478E3,3.4373423E3,2.0409376E1,1.9042483E3,5.382275E3,1.7287635E3],"split_indices":[2,3,2,2,8,4,10,7,4,13,13,3,7,3,10,0,0,0,0,0,0,0,0,0,0,0,0,0,0,0,0],"split_type":[0,0,0,0,0,0,0,0,0,0,0,0,0,0,0,0,0,0,0,0,0,0,0,0,0,0,0,0,0,0,0],"sum_hessian":[5.48E2,4.03E2,1.45E2,1.56E2,2.47E2,9.8E1,4.7E1,7E1,8.6E1,2.07E2,4E1,4.6E1,5.2E1,7E0,4E1,5.9E1,1.1E1,5.6E1,3E1,1.94E2,1.3E1,3.2E1,8E0,3.6E1,1E1,1.9E1,3.3E1,1E0,6E0,3.5E1,5E0],"tree_param":{"num_deleted":"0","num_feature":"19","num_nodes":"31","size_leaf_vector":"1"}},{"base_weights":[2.971869E3,-1.4390438E4,6.423393E4,-4.2959246E4,3.479486E3,3.790116E4,9.5316875E4,-6.595096E4,-2.5053887E4,-7.3801367E3,4.8151543E4,1.5487507E4,6.198428E4,6.729983E4,1.28934766E5,-3.5614407E3,-4.514366E2,-1.993107E3,-6.614419E1,-1.2017612E3,4.1271695E2,1.815694E3,4.9021904E3,-1.8324828E3,1.0760334E3,2.0591655E3,4.3808843E3,2.3999019E3,5.1516895E3,2.1976875E3,6.974212E3],"categories":[],"categories_nodes":[],"categories_segments":[],"categories_sizes":[],"default_left":[0,0,0,0,0,0,0,0,0,0,0,0,0,0,0,0,0,0,0,0,0,0,0,0,0,0,0,0,0,0,0],"id":32,"left_children":[1,3,5,7,9,11,13,15,17,19,21,23,25,27,29,-1,-1,-1,-1,-1,-1,-1,-1,-1,-1,-1,-1,-1,-1,-1,-1],"loss_changes":[5.6359564E11,2.1099522E11,9.215184E10,6.3804015E10,1.2406139E11,3.4126422E10,4.1242067E10,2.0086358E10,3.1926014E10,5.383947E10,2.597005E10,1.1798041E10,1.2920799E10,1.6436199E10,1.4488764E10,0E0,0E0,0E0,0E0,0E0,0E0,0E0,0E0,0E0,0E0,0E0,0E0,0E0,0E0,0E0,0E0],"parents":[2147483647,0,0,1,1,2,2,3,3,4,4,5,5,6,6,7,7,8,8,9,9,10,10,11,11,12,12,13,13,14,14],"right_children":[2,4,6,8,10,12,14,16,18,20,22,24,26,28,30,-1,-1,-1,-1,-1,-1,-1,-1,-1,-1,-1,-1,-1,-1,-1,-1],"split_conditions":[3.6329375E3,3.546799E4,6.0295938E3,1.2702916E3,7.5738228E3,1.8364583E2,-8.7625E1,8.4803125E2,5.106146E3,9.401458E2,4.6769875E4,1.19125E2,1.9098958E2,5.181479E3,6.550104E3,-3.5614407E3,-4.514366E2,-1.993107E3,-6.614419E1,-1.2017612E3,4.1271695E2,1.815694E3,4.9021904E3,-1.8324828E3,1.0760334E3,2.0591655E3,4.3808843E3,2.3999019E3,5.1516895E3,2.1976875E3,6.974212E3],"split_indices":[2,3,2,2,8,7,9,6,4,2,3,0,0,4,2,0,0,0,0,0,0,0,0,0,0,0,0,0,0,0,0],"split_type":[0,0,0,0,0,0,0,0,0,0,0,0,0,0,0,0,0,0,0,0,0,0,0,0,0,0,0,0,0,0,0],"sum_hessian":[5.28E2,4.12E2,1.16E2,1.58E2,2.54E2,6.4E1,5.2E1,6.8E1,9E1,2.05E2,4.9E1,3.4E1,3E1,3E1,2.2E1,6.2E1,6E0,5.5E1,3.5E1,9.9E1,1.06E2,4.1E1,8E0,3E0,3.1E1,1.8E1,1.2E1,2.1E1,9E0,3E0,1.9E1],"tree_param":{"num_deleted":"0","num_feature":"19","num_nodes":"31","size_leaf_vector":"1"}},{"base_weights":[1.6632532E3,6.3938707E4,-1.224123E4,4.706156E4,1.126877E5,-4.722107E2,-4.071686E4,1.0893555E5,4.211112E4,7.445105E3,8.688669E4,3.546438E4,-1.07586045E4,-2.7109346E3,-4.7540348E4,1.6642375E3,5.976353E3,2.15175E2,2.372195E3,8.9041E2,5.3385874E3,1.0096491E3,3.428004E3,-1.1956195E3,1.3321119E3,-9.613781E2,2.0892615E3,-2.5803418E3,5.633254E2],"categories":[],"categories_nodes":[],"categories_segments":[],"categories_sizes":[],"default_left":[0,0,0,0,0,0,0,0,0,0,0,0,0,0,0,0,0,0,0,0,0,0,0,0,0,0,0,0,0],"id":33,"left_children":[1,3,5,7,9,11,13,15,17,-1,19,21,23,25,27,-1,-1,-1,-1,-1,-1,-1,-1,-1,-1,-1,-1,-1,-1],"loss_changes":[4.7443437E11,7.697115E10,1.5011912E11,1.8691654E10,1.04216E10,1.1793276E11,3.3843757E10,2.7856896E7,1.4312456E10,0E0,2.1450277E10,3.4500215E10,1.226438E11,1.6236887E10,2.7125645E10,0E0,0E0,0E0,0E0,0E0,0E0,0E0,0E0,0E0,0E0,0E0,0E0,0E0,0E0],"parents":[2147483647,0,0,1,1,2,2,3,3,4,4,5,5,6,6,7,7,8,8,10,10,11,11,12,12,13,13,14,14],"right_children":[2,4,6,8,10,12,14,16,18,-1,20,22,24,26,28,-1,-1,-1,-1,-1,-1,-1,-1,-1,-1,-1,-1,-1,-1],"split_conditions":[2E0,-9.770833E2,5E0,6.50625E2,2E0,5E0,1.7351562E3,1.6020833E2,-1.3751666E3,7.445105E3,5.34875E2,-7.651667E2,1E1,1.7875E2,1.1469584E3,1.6642375E3,5.976353E3,2.15175E2,2.372195E3,8.9041E2,5.3385874E3,1.0096491E3,3.428004E3,-1.1956195E3,1.3321119E3,-9.613781E2,2.0892615E3,-2.5803418E3,5.633254E2],"split_indices":[18,12,17,6,15,15,5,0,10,0,10,12,15,0,13,0,0,0,0,0,0,0,0,0,0,0,0,0,0],"split_type":[0,0,0,0,0,0,0,0,0,0,0,0,0,0,0,0,0,0,0,0,0,0,0,0,0,0,0,0,0],"sum_hessian":[5.46E2,9.9E1,4.47E2,7.5E1,2.4E1,3.17E2,1.3E2,4E0,7.1E1,8E0,1.6E1,7E1,2.47E2,2E1,1.1E2,1E0,3E0,9E0,6.2E1,4E0,1.2E1,4.9E1,2.1E1,1.83E2,6.4E1,1.5E1,5E0,1.03E2,7E0],"tree_param":{"num_deleted":"0","num_feature":"19","num_nodes":"29","size_leaf_vector":"1"}},{"base_weights":[-4.346361E2,6.3138766E4,-1.4317483E4,5.0217418E4,1.3431102E5,-2.42244E4,2.3399043E4,3.4357586E4,7.2725734E4,1.6559125E3,6.977376E3,-4.4510152E4,-9.469879E3,9.779534E3,5.2179387E4,1.0201097E3,2.713528E3,1.1555062E3,4.144775E3,-4.191486E3,-1.895785E3,-8.340754E2,9.1142316E2,-6.0326373E2,1.5002032E3,9.623237E2,3.3018438E3],"categories":[],"categories_nodes":[],"categories_segments":[],"categories_sizes":[],"default_left":[0,0,0,0,0,0,0,0,0,0,0,0,0,0,0,0,0,0,0,0,0,0,0,0,0,0,0],"id":34,"left_children":[1,3,5,7,9,11,13,15,17,-1,-1,19,21,23,25,-1,-1,-1,-1,-1,-1,-1,-1,-1,-1,-1,-1],"loss_changes":[4.677887E11,8.0621175E10,1.6310654E11,2.6773504E10,2.7969618E9,1.0283927E11,3.515936E10,1.2787429E10,1.4735393E10,0E0,0E0,3.4418754E10,4.0453857E10,2.819547E10,1.1963679E10,0E0,0E0,0E0,0E0,0E0,0E0,0E0,0E0,0E0,0E0,0E0,0E0],"parents":[2147483647,0,0,1,1,2,2,3,3,4,4,5,5,6,6,7,7,8,8,11,11,12,12,13,13,14,14],"right_children":[2,4,6,8,10,12,14,16,18,-1,-1,20,22,24,26,-1,-1,-1,-1,-1,-1,-1,-1,-1,-1,-1,-1],"split_conditions":[2E0,4.830649E4,2.8242083E3,-1.3235938E3,1.8882292E2,3.5506188E4,5.408354E3,-8.05875E2,-8.818333E2,1.6559125E3,6.977376E3,2.9662303E4,4.436875E2,-6.8811456E2,7.0486456E2,1.0201097E3,2.713528E3,1.1555062E3,4.144775E3,-4.191486E3,-1.895785E3,-8.340754E2,9.1142316E2,-6.0326373E2,1.5002032E3,9.623237E2,3.3018438E3],"split_indices":[18,3,2,12,0,3,4,13,10,0,0,3,10,13,6,0,0,0,0,0,0,0,0,0,0,0,0],"split_type":[0,0,0,0,0,0,0,0,0,0,0,0,0,0,0,0,0,0,0,0,0,0,0,0,0,0,0],"sum_hessian":[5.28E2,9.4E1,4.34E2,8.1E1,1.3E1,3.44E2,9E1,4.9E1,3.2E1,1E0,1.2E1,1.44E2,2E2,6.2E1,2.8E1,3E1,1.9E1,6E0,2.6E1,1.9E1,1.25E2,1.59E2,4.1E1,3E1,3.2E1,9E0,1.9E1],"tree_param":{"num_deleted":"0","num_feature":"19","num_nodes":"27","size_leaf_vector":"1"}},{"base_weights":[3.1106516E2,-1.3808414E4,4.878179E4,-2.9428992E4,4.2655933E3,3.5974215E4,1.1171649E5,-4.2326695E4,-7.149808E3,-6.5783315E3,4.727277E4,7.1091157E3,5.2424652E4,2.478701E3,6.4018823E3,-2.911187E3,-1.236891E3,-6.543123E2,1.3824427E3,-6.593386E2,1.8187582E3,7.7894476E2,3.5699666E3,-8.895698E2,1.314369E3,1.6659032E3,3.583979E3],"categories":[],"categories_nodes":[],"categories_segments":[],"categories_sizes":[],"default_left":[0,0,0,0,0,0,0,0,0,0,0,0,0,0,0,0,0,0,0,0,0,0,0,0,0,0,0],"id":35,"left_children":[1,3,5,7,9,11,13,15,17,19,21,23,25,-1,-1,-1,-1,-1,-1,-1,-1,-1,-1,-1,-1,-1,-1],"loss_changes":[3.8529594E11,1.2321986E11,9.834827E10,6.6937324E10,9.49834E10,5.0435555E10,1.4951645E10,3.9942128E10,1.8334288E10,4.674814E10,3.02389E10,1.9569635E10,2.2628712E10,0E0,0E0,0E0,0E0,0E0,0E0,0E0,0E0,0E0,0E0,0E0,0E0,0E0,0E0],"parents":[2147483647,0,0,1,1,2,2,3,3,4,4,5,5,6,6,7,7,8,8,9,9,10,10,11,11,12,12],"right_children":[2,4,6,8,10,12,14,16,18,20,22,24,26,-1,-1,-1,-1,-1,-1,-1,-1,-1,-1,-1,-1,-1,-1],"split_conditions":[4.20443E4,1.4949896E3,4.830649E4,3.8057832E4,5.3698956E2,-1.987625E3,1.8882292E2,4.8797812E3,5.697917E2,7.3324688E3,5.34875E2,4.43435E4,-9.076667E2,2.478701E3,6.4018823E3,-2.911187E3,-1.236891E3,-6.543123E2,1.3824427E3,-6.593386E2,1.8187582E3,7.7894476E2,3.5699666E3,-8.895698E2,1.314369E3,1.6659032E3,3.583979E3],"split_indices":[3,2,3,3,13,11,0,4,10,8,10,3,9,0,0,0,0,0,0,0,0,0,0,0,0,0,0],"split_type":[0,0,0,0,0,0,0,0,0,0,0,0,0,0,0,0,0,0,0,0,0,0,0,0,0,0,0],"sum_hessian":[5.61E2,4.35E2,1.26E2,2.33E2,2.02E2,1.06E2,2E1,1.47E2,8.6E1,1.62E2,4E1,3.9E1,6.7E1,5E0,1.5E1,7.6E1,7.1E1,7.4E1,1.2E1,1.41E2,2.1E1,1.8E1,2.2E1,1.7E1,2.2E1,3.5E1,3.2E1],"tree_param":{"num_deleted":"0","num_feature":"19","num_nodes":"27","size_leaf_vector":"1"}},{"base_weights":[1.0343796E3,-1.4548759E4,4.663879E4,-2.8069535E4,1.0743195E3,2.8414424E4,7.983783E4,-1.9259258E4,-6.2862746E4,-4.6447783E3,5.8538523E4,1.2887509E4,5.484311E4,6.1254266E4,1.2059405E5,-1.2200958E3,6.080676E2,-3.3573757E3,-2.1496953E2,-5.4892096E2,2.0559148E3,1.1916099E3,3.765134E3,2.4921353E2,2.5162312E3,6.394521E2,3.0948005E3,2.3404532E2,3.3205867E3,9.4724066E2,6.3477964E3],"categories":[],"categories_nodes":[],"categories_segments":[],"categories_sizes":[],"default_left":[0,0,0,0,0,0,0,0,0,0,0,0,0,0,0,0,0,0,0,0,0,0,0,0,0,0,0,0,0,0,0],"id":36,"left_children":[1,3,5,7,9,11,13,15,17,19,21,23,25,27,29,-1,-1,-1,-1,-1,-1,-1,-1,-1,-1,-1,-1,-1,-1,-1,-1],"loss_changes":[3.823028E11,8.473584E10,8.062078E10,6.469496E10,6.172822E10,3.6225245E10,2.8968092E10,2.8251042E10,1.0501308E10,5.001522E10,8.09635E9,1.6909886E10,8.996332E9,9.901277E9,6.6483487E9,0E0,0E0,0E0,0E0,0E0,0E0,0E0,0E0,0E0,0E0,0E0,0E0,0E0,0E0,0E0,0E0],"parents":[2147483647,0,0,1,1,2,2,3,3,4,4,5,5,6,6,7,7,8,8,9,9,10,10,11,11,12,12,13,13,14,14],"right_children":[2,4,6,8,10,12,14,16,18,20,22,24,26,28,30,-1,-1,-1,-1,-1,-1,-1,-1,-1,-1,-1,-1,-1,-1,-1,-1],"split_conditions":[3.0534167E3,1.4339271E3,6.0295938E3,6E0,1.1905292E4,4.692271E3,2.835625E2,8.6651044E2,8.441458E2,5.3698956E2,5.6651044E2,1.2551771E3,6.553542E2,-1.2309166E3,-1.3198125E3,-1.2200958E3,6.080676E2,-3.3573757E3,-2.1496953E2,-5.4892096E2,2.0559148E3,1.1916099E3,3.765134E3,2.4921353E2,2.5162312E3,6.394521E2,3.0948005E3,2.3404532E2,3.3205867E3,9.4724066E2,6.3477964E3],"split_indices":[2,2,2,17,4,8,0,6,6,13,7,13,6,9,12,0,0,0,0,0,0,0,0,0,0,0,0,0,0,0,0],"split_type":[0,0,0,0,0,0,0,0,0,0,0,0,0,0,0,0,0,0,0,0,0,0,0,0,0,0,0,0,0,0,0],"sum_hessian":[5.36E2,4E2,1.36E2,2.14E2,1.86E2,8.9E1,4.7E1,1.72E2,4.2E1,1.7E2,1.6E1,5.7E1,3.2E1,3.4E1,1.3E1,1.48E2,2.4E1,3.9E1,3E0,1.5E2,2E1,6E0,1E1,4.8E1,9E0,5E0,2.7E1,3E0,3.1E1,1E0,1.2E1],"tree_param":{"num_deleted":"0","num_feature":"19","num_nodes":"31","size_leaf_vector":"1"}},{"base_weights":[2.5121628E3,-1.2107438E4,4.9435164E4,-2.1992113E4,2.0117096E4,1.778183E4,7.0858734E4,-3.9343023E4,-7.8865654E3,3.4207278E3,6.8065805E4,4.6027354E3,3.92972E4,5.860338E4,1.0994478E5,-2.4477898E3,-7.3516E2,-8.2979016E2,6.2371216E2,-4.724431E2,1.8998793E3,2.113597E3,5.1264707E3,7.385873E2,-1.5146508E3,9.5953125E2,2.5551182E3,1.777717E3,3.5985115E3,1.43265E3,5.9436743E3],"categories":[],"categories_nodes":[],"categories_segments":[],"categories_sizes":[],"default_left":[0,0,0,0,0,0,0,0,0,0,0,0,0,0,0,0,0,0,0,0,0,0,0,0,0,0,0,0,0,0,0],"id":37,"left_children":[1,3,5,7,9,11,13,15,17,19,21,23,25,27,29,-1,-1,-1,-1,-1,-1,-1,-1,-1,-1,-1,-1,-1,-1,-1,-1],"loss_changes":[3.6966416E11,1.31357835E11,8.5540274E10,7.678411E10,7.742239E10,1.4847442E10,2.9961912E10,3.2677036E10,3.1239268E10,3.2843303E10,1.7889632E10,1.2512559E10,3.7665423E9,1.5926723E10,8.933048E9,0E0,0E0,0E0,0E0,0E0,0E0,0E0,0E0,0E0,0E0,0E0,0E0,0E0,0E0,0E0,0E0],"parents":[2147483647,0,0,1,1,2,2,3,3,4,4,5,5,6,6,7,7,8,8,9,9,10,10,11,11,12,12,13,13,14,14],"right_children":[2,4,6,8,10,12,14,16,18,20,22,24,26,28,30,-1,-1,-1,-1,-1,-1,-1,-1,-1,-1,-1,-1,-1,-1,-1,-1],"split_conditions":[4.1451395E4,6.62375E2,-1.6566875E3,3.5687637E4,2.3602083E2,4.498674E4,4.830649E4,2.1944375E3,5.5255728E3,7.3324688E3,3.6381824E4,5E0,5.8013335E3,-1.3000104E3,-1.7397916E3,-2.4477898E3,-7.3516E2,-8.2979016E2,6.2371216E2,-4.724431E2,1.8998793E3,2.113597E3,5.1264707E3,7.385873E2,-1.5146508E3,9.5953125E2,2.5551182E3,1.777717E3,3.5985115E3,1.43265E3,5.9436743E3],"split_indices":[3,10,13,3,13,3,3,2,4,8,3,17,4,12,10,0,0,0,0,0,0,0,0,0,0,0,0,0,0,0,0],"split_type":[0,0,0,0,0,0,0,0,0,0,0,0,0,0,0,0,0,0,0,0,0,0,0,0,0,0,0,0,0,0,0],"sum_hessian":[5.37E2,4.1E2,1.27E2,3.14E2,9.6E1,5.2E1,7.5E1,1.4E2,1.74E2,7.2E1,2.4E1,3.3E1,1.9E1,5.9E1,1.6E1,1E2,4E1,1.22E2,5.2E1,5.3E1,1.9E1,1.5E1,9E0,2.6E1,7E0,8E0,1.1E1,2.3E1,3.6E1,2E0,1.4E1],"tree_param":{"num_deleted":"0","num_feature":"19","num_nodes":"31","size_leaf_vector":"1"}},{"base_weights":[1.370808E3,-1.1719275E4,4.4818918E4,2.8823168E4,-1.9057336E4,2.6784738E4,7.046097E4,1.4302588E4,5.090317E4,-1.2714934E4,-5.2354406E4,6.8464785E3,4.3151918E4,5.085075E4,1.0669019E5,9.5346985E1,2.1533428E3,1.2715243E3,3.6230117E3,6.9671674E2,-9.6899066E2,-2.7829392E3,2.2586015E2,8.176844E2,-2.0915322E3,2.3903943E3,4.012073E2,1.8883632E3,4.5143306E3,1.1512792E3,5.815521E3],"categories":[],"categories_nodes":[],"categories_segments":[],"categories_sizes":[],"default_left":[0,0,0,0,0,0,0,0,0,0,0,0,0,0,0,0,0,0,0,0,0,0,0,0,0,0,0,0,0,0,0],"id":38,"left_children":[1,3,5,7,9,11,13,15,17,19,21,23,25,27,29,-1,-1,-1,-1,-1,-1,-1,-1,-1,-1,-1,-1,-1,-1,-1,-1],"loss_changes":[3.0707574E11,1.24012995E11,5.5916904E10,1.9791282E10,7.367087E10,2.4179536E10,3.0808326E10,1.4179942E10,1.1885203E10,5.3021446E10,1.0775249E10,1.688151E10,6.3220777E9,1.4648672E10,1.100474E10,0E0,0E0,0E0,0E0,0E0,0E0,0E0,0E0,0E0,0E0,0E0,0E0,0E0,0E0,0E0,0E0],"parents":[2147483647,0,0,1,1,2,2,3,3,4,4,5,5,6,6,7,7,8,8,9,9,10,10,11,11,12,12,13,13,14,14],"right_children":[2,4,6,8,10,12,14,16,18,20,22,24,26,28,30,-1,-1,-1,-1,-1,-1,-1,-1,-1,-1,-1,-1,-1,-1,-1,-1],"split_conditions":[3.563198E3,1.6578959E3,6.0295938E3,-8.05875E2,6E0,4.294854E3,1.249375E2,1.2344792E4,2.0447188E3,5E0,1.0478959E3,5E0,8.280083E3,5.7398228E3,1E0,9.5346985E1,2.1533428E3,1.2715243E3,3.6230117E3,6.9671674E2,-9.6899066E2,-2.7829392E3,2.2586015E2,8.176844E2,-2.0915322E3,2.3903943E3,4.012073E2,1.8883632E3,4.5143306E3,1.1512792E3,5.815521E3],"split_indices":[2,5,2,13,17,4,9,8,2,15,13,17,8,4,17,0,0,0,0,0,0,0,0,0,0,0,0,0,0,0,0],"split_type":[0,0,0,0,0,0,0,0,0,0,0,0,0,0,0,0,0,0,0,0,0,0,0,0,0,0,0,0,0,0,0],"sum_hessian":[5.38E2,4.14E2,1.24E2,6.3E1,3.51E2,7.4E1,5E1,3.9E1,2.4E1,2.96E2,5.5E1,3.4E1,4E1,3.4E1,1.6E1,2.8E1,1.1E1,1.2E1,1.2E1,5.9E1,2.37E2,5.2E1,3E0,2.9E1,5E0,3.5E1,5E0,2.7E1,7E0,2E0,1.4E1],"tree_param":{"num_deleted":"0","num_feature":"19","num_nodes":"31","size_leaf_vector":"1"}},{"base_weights":[1.9807986E3,-1.9645326E4,2.6819406E4,-2.7591926E4,4.8435073E3,3.3752524E3,5.1673504E4,-2.0568578E4,-5.4192258E4,-1.2964275E4,3.9474234E4,-9.984569E3,2.2813088E4,4.2626168E4,1.044243E5,-1.2053171E3,4.634663E2,-2.959426E3,-2.6911063E2,-1.2562856E3,3.3368768E2,2.2560103E3,5.0623502E2,-2.0963353E2,-2.1124333E3,6.657272E2,2.1082668E3,1.0035412E3,3.1313376E3,1.3187094E3,5.3934683E3],"categories":[],"categories_nodes":[],"categories_segments":[],"categories_sizes":[],"default_left":[0,0,0,0,0,0,0,0,0,0,0,0,0,0,0,0,0,0,0,0,0,0,0,0,0,0,0,0,0,0,0],"id":39,"left_children":[1,3,5,7,9,11,13,15,17,19,21,23,25,27,29,-1,-1,-1,-1,-1,-1,-1,-1,-1,-1,-1,-1,-1,-1,-1,-1],"loss_changes":[2.7125693E11,5.2676428E10,1.3675615E11,3.6997333E10,4.1830416E10,3.190947E10,4.9955766E10,1.7429643E10,9.923879E9,1.0914882E10,3.3544233E9,1.3464402E10,8.629498E9,4.340392E10,1.4572421E9,0E0,0E0,0E0,0E0,0E0,0E0,0E0,0E0,0E0,0E0,0E0,0E0,0E0,0E0,0E0,0E0],"parents":[2147483647,0,0,1,1,2,2,3,3,4,4,5,5,6,6,7,7,8,8,9,9,10,10,11,11,12,12,13,13,14,14],"right_children":[2,4,6,8,10,12,14,16,18,20,22,24,26,28,30,-1,-1,-1,-1,-1,-1,-1,-1,-1,-1,-1,-1,-1,-1,-1,-1],"split_conditions":[3.8584688E4,6.62375E2,-1.6705416E3,6E0,-5.866875E2,4.8657188E3,4.830649E4,9.534125E3,8.4803125E2,3.4818457E4,1.048875E3,5E0,9.093333E2,3.7677084E2,1.08958336E2,-1.2053171E3,4.634663E2,-2.959426E3,-2.6911063E2,-1.2562856E3,3.3368768E2,2.2560103E3,5.0623502E2,-2.0963353E2,-2.1124333E3,6.657272E2,2.1082668E3,1.0035412E3,3.1313376E3,1.3187094E3,5.3934683E3],"split_indices":[3,10,13,17,13,8,3,4,6,3,10,17,10,10,0,0,0,0,0,0,0,0,0,0,0,0,0,0,0,0,0],"split_type":[0,0,0,0,0,0,0,0,0,0,0,0,0,0,0,0,0,0,0,0,0,0,0,0,0,0,0,0,0,0,0],"sum_hessian":[5.03E2,2.69E2,2.34E2,2.03E2,6.6E1,1.21E2,1.13E2,1.62E2,4.1E1,4.4E1,2.2E1,7.2E1,4.9E1,9.8E1,1.5E1,1.45E2,1.7E1,3.7E1,4E0,2.7E1,1.7E1,1.8E1,4E0,6.2E1,1E1,3.4E1,1.5E1,4.7E1,5.1E1,1E0,1.4E1],"tree_param":{"num_deleted":"0","num_feature":"19","num_nodes":"31","size_leaf_vector":"1"}},{"base_weights":[1.2360347E3,-7.362194E3,5.5870855E4,-1.6484643E4,1.8345691E4,3.661785E4,9.883837E4,-3.324178E4,-5.84396E3,4.051134E3,5.522422E4,1.6955803E4,5.4195465E4,1.5310625E3,1.1229655E5,-2.5144783E3,-9.270501E2,-1.1570398E3,2.3416211E2,-4.181949E2,1.8084086E3,1.681178E3,3.433175E3,9.913836E2,-5.8355414E2,1.8559828E3,4.2111333E3,1.8258167E3,5.9743403E3],"categories":[],"categories_nodes":[],"categories_segments":[],"categories_sizes":[],"default_left":[0,0,0,0,0,0,0,0,0,0,0,0,0,0,0,0,0,0,0,0,0,0,0,0,0,0,0,0,0],"id":40,"left_children":[1,3,5,7,9,11,13,15,17,19,21,23,25,-1,27,-1,-1,-1,-1,-1,-1,-1,-1,-1,-1,-1,-1,-1,-1],"loss_changes":[2.5220412E11,1.0911917E11,5.6770298E10,6.0965167E10,6.4090067E10,1.7052885E10,1.6759046E10,3.2399475E10,3.852879E10,3.5789832E10,7.561396E9,2.36894E9,1.0717626E10,0E0,5.444616E9,0E0,0E0,0E0,0E0,0E0,0E0,0E0,0E0,0E0,0E0,0E0,0E0,0E0,0E0],"parents":[2147483647,0,0,1,1,2,2,3,3,4,4,5,5,6,6,7,7,8,8,9,9,10,10,11,11,12,12,14,14],"right_children":[2,4,6,8,10,12,14,16,18,20,22,24,26,-1,28,-1,-1,-1,-1,-1,-1,-1,-1,-1,-1,-1,-1,-1,-1],"split_conditions":[4.412777E4,6.62375E2,-1.3000104E3,3.546799E4,-7.1588544E2,4.9834272E3,-6.462292E2,-1.0399375E3,7.2805206E2,7.3324688E3,3.546799E4,2.3947917E2,4.7398574E4,1.5310625E3,4.43435E4,-2.5144783E3,-9.270501E2,-1.1570398E3,2.3416211E2,-4.181949E2,1.8084086E3,1.681178E3,3.433175E3,9.913836E2,-5.8355414E2,1.8559828E3,4.2111333E3,1.8258167E3,5.9743403E3],"split_indices":[3,10,12,3,13,8,13,9,2,8,3,0,3,0,3,0,0,0,0,0,0,0,0,0,0,0,0,0,0],"split_type":[0,0,0,0,0,0,0,0,0,0,0,0,0,0,0,0,0,0,0,0,0,0,0,0,0,0,0,0,0],"sum_hessian":[5.35E2,4.63E2,7.2E1,3.42E2,1.21E2,5.1E1,2.1E1,1.32E2,2.1E2,8.8E1,3.3E1,2.5E1,2.6E1,4E0,1.7E1,6E1,7.2E1,7.9E1,1.31E2,6.4E1,2.4E1,1.4E1,1.9E1,2.3E1,2E0,1.8E1,8E0,2E0,1.5E1],"tree_param":{"num_deleted":"0","num_feature":"19","num_nodes":"29","size_leaf_vector":"1"}},{"base_weights":[1.7335935E3,-2.0657986E4,2.4963598E4,-4.050279E4,-1.2163494E4,1.4719576E4,7.096845E4,-4.2805082E4,7.5466095E2,-1.7729703E4,1.3629561E4,8.028257E2,4.0193066E4,4.9459574E4,9.413988E4,-2.4570664E3,-1.1482455E3,5.1095248E2,-1.1997421E3,-2.0977908E3,8.24921E2,-3.4751364E2,1.562642E3,1.0678762E3,2.9989294E3,1.7903983E3,4.1674375E3,7.6480414E2,5.0629727E3],"categories":[],"categories_nodes":[],"categories_segments":[],"categories_sizes":[],"default_left":[0,0,0,0,0,0,0,0,0,0,0,0,0,0,0,0,0,0,0,0,0,0,0,0,0,0,0,0,0],"id":41,"left_children":[1,3,5,7,9,11,13,15,-1,17,19,21,23,25,27,-1,-1,-1,-1,-1,-1,-1,-1,-1,-1,-1,-1,-1,-1],"loss_changes":[2.8088005E11,4.58645E10,1.2384317E11,1.1141939E10,2.8094138E10,7.725053E10,1.9266666E10,8.802746E9,0E0,2.8261642E10,6.273534E9,3.3740857E10,2.7414675E10,9.506779E9,1.080048E10,0E0,0E0,0E0,0E0,0E0,0E0,0E0,0E0,0E0,0E0,0E0,0E0,0E0,0E0],"parents":[2147483647,0,0,1,1,2,2,3,3,4,4,5,5,6,6,7,7,9,9,10,10,11,11,12,12,13,13,14,14],"right_children":[2,4,6,8,10,12,14,16,-1,18,20,22,24,26,28,-1,-1,-1,-1,-1,-1,-1,-1,-1,-1,-1,-1,-1,-1],"split_conditions":[2.0044896E3,1.06833336E2,6.0295938E3,9.9729164E1,8.5544794E2,4.4192085E3,-1.04541664E2,4.8797812E3,7.5466095E2,5E0,1.5084375E3,5.3698956E2,-1.8500104E3,5.6995522E3,6.550104E3,-2.4570664E3,-1.1482455E3,5.1095248E2,-1.1997421E3,-2.0977908E3,8.24921E2,-3.4751364E2,1.562642E3,1.0678762E3,2.9989294E3,1.7903983E3,4.1674375E3,7.6480414E2,5.0629727E3],"split_indices":[2,7,2,12,6,8,9,4,0,15,4,13,13,4,2,0,0,0,0,0,0,0,0,0,0,0,0,0,0],"split_type":[0,0,0,0,0,0,0,0,0,0,0,0,0,0,0,0,0,0,0,0,0,0,0,0,0,0,0,0,0],"sum_hessian":[5.38E2,2.74E2,2.64E2,8.1E1,1.93E2,2.17E2,4.7E1,7.8E1,3E0,1.59E2,3.4E1,1.41E2,7.6E1,2.6E1,2.1E1,5.8E1,2E1,2.9E1,1.3E2,1E0,3.3E1,1.13E2,2.8E1,4E1,3.6E1,2E1,6E0,2E0,1.9E1],"tree_param":{"num_deleted":"0","num_feature":"19","num_nodes":"29","size_leaf_vector":"1"}},{"base_weights":[1.0170797E3,-1.2282889E4,3.1633568E4,1.4805603E4,-2.0451584E4,2.1900154E4,8.409667E4,9.4220667E2,4.7295023E4,8.636574E3,-2.7076838E4,-2.1031412E4,3.066935E4,5.8900574E4,5.5404917E3,-3.045375E2,1.7051627E3,-1.5368125E3,2.5822864E3,-5.569186E2,8.263961E2,-2.5722449E3,-1.119323E3,-1.5721967E3,7.7234064E2,9.957459E2,2.2125906E3,1.813975E3,3.9785222E3],"categories":[],"categories_nodes":[],"categories_segments":[],"categories_sizes":[],"default_left":[0,0,0,0,0,0,0,0,0,0,0,0,0,0,0,0,0,0,0,0,0,0,0,0,0,0,0,0,0],"id":42,"left_children":[1,3,5,7,9,11,13,15,17,19,21,23,25,27,-1,-1,-1,-1,-1,-1,-1,-1,-1,-1,-1,-1,-1,-1,-1],"loss_changes":[2.1783246E11,8.2839355E10,8.088278E10,3.9141433E10,5.5543448E10,5.2598608E10,1.0299916E10,1.4667367E10,1.0414154E10,8.610846E9,2.5593463E10,9.601637E9,1.5916958E10,4.126843E9,0E0,0E0,0E0,0E0,0E0,0E0,0E0,0E0,0E0,0E0,0E0,0E0,0E0,0E0,0E0],"parents":[2147483647,0,0,1,1,2,2,3,3,4,4,5,5,6,6,7,7,8,8,9,9,10,10,11,11,12,12,13,13],"right_children":[2,4,6,8,10,12,14,16,18,20,22,24,26,28,-1,-1,-1,-1,-1,-1,-1,-1,-1,-1,-1,-1,-1,-1,-1],"split_conditions":[4.0327355E4,5E0,4.7794688E4,5.694167E2,1.9779584E3,-1.9489375E3,6.8614586E1,1.06837295E4,1.6854166E1,3.5671375E4,3.0856094E4,-6.9876044E2,-1.3198125E3,4.600521E2,5.5404917E3,-3.045375E2,1.7051627E3,-1.5368125E3,2.5822864E3,-5.569186E2,8.263961E2,-2.5722449E3,-1.119323E3,-1.5721967E3,7.7234064E2,9.957459E2,2.2125906E3,1.813975E3,3.9785222E3],"split_indices":[3,15,3,13,5,9,13,4,1,3,3,12,12,7,0,0,0,0,0,0,0,0,0,0,0,0,0,0,0],"split_type":[0,0,0,0,0,0,0,0,0,0,0,0,0,0,0,0,0,0,0,0,0,0,0,0,0,0,0,0,0],"sum_hessian":[5.33E2,3.72E2,1.61E2,8.6E1,2.86E2,1.37E2,2.4E1,6.1E1,2.5E1,5.3E1,2.33E2,2.3E1,1.14E2,1.4E1,1E1,5.1E1,1E1,1E0,2.4E1,1.5E1,3.8E1,3.6E1,1.97E2,1.8E1,5E0,6.5E1,4.9E1,8E0,6E0],"tree_param":{"num_deleted":"0","num_feature":"19","num_nodes":"29","size_leaf_vector":"1"}},{"base_weights":[1.798411E3,-1.6530156E4,2.4074229E4,-3.7069125E4,-5.8578525E3,1.3503513E4,5.875421E4,-4.0665117E4,1.651551E4,-1.8947453E4,8.561471E3,5.70539E3,4.010409E4,2.8057129E4,8.260485E4,-1.7298485E3,-3.0055842E3,1.3175781E2,2.4949407E3,-1.1996083E3,8.71749E2,1.6245998E2,1.7984335E3,2.3442238E1,1.9205178E3,9.454725E2,2.8395278E3,7.0867584E2,2.1536775E3,4.1941876E2,4.5128516E3],"categories":[],"categories_nodes":[],"categories_segments":[],"categories_sizes":[],"default_left":[0,0,0,0,0,0,0,0,0,0,0,0,0,0,0,0,0,0,0,0,0,0,0,0,0,0,0,0,0,0,0],"id":43,"left_children":[1,3,5,7,9,11,13,15,17,19,21,23,25,27,29,-1,-1,-1,-1,-1,-1,-1,-1,-1,-1,-1,-1,-1,-1,-1,-1],"loss_changes":[2.1801324E11,6.4007913E10,8.755534E10,1.9940606E10,3.6778394E10,3.835402E10,3.868246E10,9.012756E9,3.1121134E9,1.9139277E10,1.3423413E10,2.4814842E10,1.3779988E10,4.810033E9,1.6848339E10,0E0,0E0,0E0,0E0,0E0,0E0,0E0,0E0,0E0,0E0,0E0,0E0,0E0,0E0,0E0,0E0],"parents":[2147483647,0,0,1,1,2,2,3,3,4,4,5,5,6,6,7,7,8,8,9,9,10,10,11,11,12,12,13,13,14,14],"right_children":[2,4,6,8,10,12,14,16,18,20,22,24,26,28,30,-1,-1,-1,-1,-1,-1,-1,-1,-1,-1,-1,-1,-1,-1,-1,-1],"split_conditions":[2.0589375E3,3.5153793E4,4.4889363E4,8.6651044E2,3.3601667E3,5.3275415E3,-9.4828125E2,7.991458E2,8.2705206E2,1.575E1,1.0286427E4,7.6031353E3,7.7888544E2,5.22975E3,5E0,-1.7298485E3,-3.0055842E3,1.3175781E2,2.4949407E3,-1.1996083E3,8.71749E2,1.6245998E2,1.7984335E3,2.3442238E1,1.9205178E3,9.454725E2,2.8395278E3,7.0867584E2,2.1536775E3,4.1941876E2,4.5128516E3],"split_indices":[2,3,3,6,8,2,13,6,2,12,8,8,6,8,16,0,0,0,0,0,0,0,0,0,0,0,0,0,0,0,0],"split_type":[0,0,0,0,0,0,0,0,0,0,0,0,0,0,0,0,0,0,0,0,0,0,0,0,0,0,0,0,0,0,0],"sum_hessian":[5.32E2,2.92E2,2.4E2,9.9E1,1.93E2,1.85E2,5.5E1,9.3E1,6E0,1.01E2,9.2E1,1.44E2,4.1E1,2.5E1,3E1,7.3E1,2E1,5E0,1E0,8.9E1,1.2E1,7.8E1,1.4E1,1.25E2,1.9E1,1.9E1,2.2E1,1.4E1,1.1E1,3E0,2.7E1],"tree_param":{"num_deleted":"0","num_feature":"19","num_nodes":"31","size_leaf_vector":"1"}},{"base_weights":[1.6727361E3,-1.5926857E4,2.2012887E4,-4.686277E4,-8.812312E3,1.3792444E4,6.097421E4,-3.5047062E4,-6.4918324E4,-1.5324016E4,2.0625885E4,5.034E3,4.0875242E4,3.448249E4,8.228604E4,-1.8660186E3,6.3083334E0,-3.4283396E3,1.8851562E1,-1.250955E3,-2.4600249E2,7.2976874E2,2.3915938E3,-2.5128783E2,1.1770039E3,1.108704E3,2.9326243E3,8.70362E2,2.670905E3,1.7891719E3,4.6929185E3],"categories":[],"categories_nodes":[],"categories_segments":[],"categories_sizes":[],"default_left":[0,0,0,0,0,0,0,0,0,0,0,0,0,0,0,0,0,0,0,0,0,0,0,0,0,0,0,0,0,0,0],"id":44,"left_children":[1,3,5,7,9,11,13,15,17,19,21,23,25,27,29,-1,-1,-1,-1,-1,-1,-1,-1,-1,-1,-1,-1,-1,-1,-1,-1],"loss_changes":[1.8291958E11,5.9893055E10,7.506522E10,8.605106E9,4.3255267E10,4.6523265E10,2.0310622E10,2.6433782E9,4.552188E9,1.8436493E10,6.028581E9,2.8043303E10,1.4657274E10,5.5367414E9,8.480588E9,0E0,0E0,0E0,0E0,0E0,0E0,0E0,0E0,0E0,0E0,0E0,0E0,0E0,0E0,0E0,0E0],"parents":[2147483647,0,0,1,1,2,2,3,3,4,4,5,5,6,6,7,7,8,8,9,9,10,10,11,11,12,12,13,13,14,14],"right_children":[2,4,6,8,10,12,14,16,18,20,22,24,26,28,30,-1,-1,-1,-1,-1,-1,-1,-1,-1,-1,-1,-1,-1,-1,-1,-1],"split_conditions":[2.0319166E3,3.2873887E4,4.533578E4,-7.502083E2,8.0982188E3,5.366104E3,-8.05875E2,-4.5228125E2,2.4370833E2,3.8057832E4,1.4326208E4,5.3101147E3,7.7888544E2,4.10125E2,1.6308333E2,-1.8660186E3,6.3083334E0,-3.4283396E3,1.8851562E1,-1.250955E3,-2.4600249E2,7.2976874E2,2.3915938E3,-2.5128783E2,1.1770039E3,1.108704E3,2.9326243E3,8.70362E2,2.670905E3,1.7891719E3,4.6929185E3],"split_indices":[2,3,3,11,4,2,13,12,10,3,4,4,6,7,0,0,0,0,0,0,0,0,0,0,0,0,0,0,0,0,0],"split_type":[0,0,0,0,0,0,0,0,0,0,0,0,0,0,0,0,0,0,0,0,0,0,0,0,0,0,0,0,0,0,0],"sum_hessian":[5.09E2,2.73E2,2.36E2,5E1,2.23E2,1.96E2,4E1,3.2E1,1.8E1,1.83E2,4E1,1.49E2,4.7E1,1.9E1,2.1E1,3E1,2E0,1.7E1,1E0,9.4E1,8.9E1,3.4E1,6E0,9.7E1,5.2E1,2.4E1,2.3E1,1.1E1,8E0,5E0,1.6E1],"tree_param":{"num_deleted":"0","num_feature":"19","num_nodes":"31","size_leaf_vector":"1"}},{"base_weights":[1.7664436E2,-9.233357E3,3.358863E4,1.2186093E4,-1.5551363E4,2.223979E4,6.3393645E4,2.6840025E4,-1.2701226E3,-2.3704549E4,7.2877393E3,3.83908E3,3.643138E4,8.1790734E4,1.4740975E4,8.001025E2,2.5234768E3,-9.844469E2,3.856224E2,-1.3711323E3,7.107942E2,2.197639E2,3.2742188E3,-3.5275827E2,2.046857E3,1.1153364E3,2.6376118E3,4.4174893E3,4.3069165E2,9.3145557E2,-5.0630624E2],"categories":[],"categories_nodes":[],"categories_segments":[],"categories_sizes":[],"default_left":[0,0,0,0,0,0,0,0,0,0,0,0,0,0,0,0,0,0,0,0,0,0,0,0,0,0,0,0,0,0,0],"id":45,"left_children":[1,3,5,7,9,11,13,15,17,19,21,23,25,27,29,-1,-1,-1,-1,-1,-1,-1,-1,-1,-1,-1,-1,-1,-1,-1,-1],"loss_changes":[1.688322E11,5.6892027E10,3.8503924E10,1.8963988E10,6.050527E10,2.2578905E10,2.7436483E10,1.0972801E10,8.589714E9,3.4086896E10,1.4188687E10,1.6050877E10,1.0119066E10,1.0278289E10,1.1555075E9,0E0,0E0,0E0,0E0,0E0,0E0,0E0,0E0,0E0,0E0,0E0,0E0,0E0,0E0,0E0,0E0],"parents":[2147483647,0,0,1,1,2,2,3,3,4,4,5,5,6,6,7,7,8,8,9,9,10,10,11,11,12,12,13,13,14,14],"right_children":[2,4,6,8,10,12,14,16,18,20,22,24,26,28,30,-1,-1,-1,-1,-1,-1,-1,-1,-1,-1,-1,-1,-1,-1,-1,-1],"split_conditions":[3.563198E3,5E0,-2.1091667E2,4E0,1E1,2.6520834E1,3E0,3.0970105E3,4.7691666E2,-2.7747916E2,1.2294062E3,2.3435417E2,-1.4652084E3,9.885833E2,4E0,8.001025E2,2.5234768E3,-9.844469E2,3.856224E2,-1.3711323E3,7.107942E2,2.197639E2,3.2742188E3,-3.5275827E2,2.046857E3,1.1153364E3,2.6376118E3,4.4174893E3,4.3069165E2,9.3145557E2,-5.0630624E2],"split_indices":[2,15,9,17,15,7,18,5,10,12,7,1,13,10,17,0,0,0,0,0,0,0,0,0,0,0,0,0,0,0,0],"split_type":[0,0,0,0,0,0,0,0,0,0,0,0,0,0,0,0,0,0,0,0,0,0,0,0,0,0,0,0,0,0,0],"sum_hessian":[5.35E2,4.18E2,1.17E2,9.5E1,3.23E2,8.6E1,3.1E1,4.5E1,5E1,2.38E2,8.5E1,3.8E1,4.8E1,2.2E1,9E0,3.2E1,1.3E1,1.6E1,3.4E1,2.17E2,2.1E1,8.2E1,3E0,3E1,8E0,2.7E1,2.1E1,2E1,2E0,8E0,1E0],"tree_param":{"num_deleted":"0","num_feature":"19","num_nodes":"31","size_leaf_vector":"1"}},{"base_weights":[9.2738367E2,-1.4345067E4,1.9576004E4,8.212167E3,-2.0923193E4,7.680624E3,4.6277848E4,-9.540909E2,4.3635883E4,-2.3832928E4,1.7107176E4,-1.3780286E4,1.4174943E4,3.2002209E4,7.7161805E4,-1.2042605E3,5.0139313E2,1.3057632E3,3.1322085E3,-9.267456E2,-2.2932563E3,-1.5338812E3,1.4769017E3,-9.722531E2,7.8514777E2,5.0914136E2,1.9335424E3,1.0690497E3,2.6618247E3,1.9279625E3,4.287128E3],"categories":[],"categories_nodes":[],"categories_segments":[],"categories_sizes":[],"default_left":[0,0,0,0,0,0,0,0,0,0,0,0,0,0,0,0,0,0,0,0,0,0,0,0,0,0,0,0,0,0,0],"id":46,"left_children":[1,3,5,7,9,11,13,15,17,19,21,23,25,27,29,-1,-1,-1,-1,-1,-1,-1,-1,-1,-1,-1,-1,-1,-1,-1,-1],"loss_changes":[1.543631E11,4.439035E10,7.714592E10,2.2121431E10,2.5969779E10,2.3888912E10,3.0597267E10,1.4212889E10,3.0265487E9,2.4246182E10,1.100426E10,6.985985E9,1.2416776E10,1.0815046E10,4.312326E9,0E0,0E0,0E0,0E0,0E0,0E0,0E0,0E0,0E0,0E0,0E0,0E0,0E0,0E0,0E0,0E0],"parents":[2147483647,0,0,1,1,2,2,3,3,4,4,5,5,6,6,7,7,8,8,9,9,10,10,11,11,12,12,13,13,14,14],"right_children":[2,4,6,8,10,12,14,16,18,20,22,24,26,28,30,-1,-1,-1,-1,-1,-1,-1,-1,-1,-1,-1,-1,-1,-1,-1,-1],"split_conditions":[3.8584688E4,5E0,-8.05875E2,-3.8627084E2,1.1E1,6.5796875E2,-3.0783334E2,3.382852E4,3.495648E4,6E0,-2.4846562E3,-1.39925E3,1.1664166E3,6.9964375E3,-1.3973959E3,-1.2042605E3,5.0139313E2,1.3057632E3,3.1322085E3,-9.267456E2,-2.2932563E3,-1.5338812E3,1.4769017E3,-9.722531E2,7.8514777E2,5.0914136E2,1.9335424E3,1.0690497E3,2.6618247E3,1.9279625E3,4.287128E3],"split_indices":[3,15,13,9,15,2,9,3,3,17,13,9,10,4,12,0,0,0,0,0,0,0,0,0,0,0,0,0,0,0,0],"split_type":[0,0,0,0,0,0,0,0,0,0,0,0,0,0,0,0,0,0,0,0,0,0,0,0,0,0,0,0,0,0,0],"sum_hessian":[5.4E2,2.97E2,2.43E2,6.7E1,2.3E2,1.69E2,7.4E1,5.4E1,1.3E1,2.14E2,1.6E1,3.9E1,1.3E2,5.2E1,2.2E1,1.7E1,3.7E1,8E0,5E0,1.74E2,4E1,3E0,1.3E1,3.3E1,6E0,1.13E2,1.7E1,3.6E1,1.6E1,5E0,1.7E1],"tree_param":{"num_deleted":"0","num_feature":"19","num_nodes":"31","size_leaf_vector":"1"}},{"base_weights":[1.4210477E3,-7.206969E3,3.2897477E4,-1.3382568E4,1.2858654E4,6.753649E3,4.974061E4,-6.7229097E3,-3.006684E4,-3.9197375E4,1.9656584E4,-9.457115E3,2.4080408E4,4.115486E4,7.9050414E4,-5.5839105E2,7.290746E2,-9.5061664E2,-1.9398881E3,-7.1687463E2,-3.5566855E3,3.1264027E1,1.743456E3,-9.837878E2,1.3090604E3,4.3635568E2,1.7609658E3,1.6750452E3,3.3532732E3,9.022042E2,4.3524E3],"categories":[],"categories_nodes":[],"categories_segments":[],"categories_sizes":[],"default_left":[0,0,0,0,0,0,0,0,0,0,0,0,0,0,0,0,0,0,0,0,0,0,0,0,0,0,0,0,0,0,0],"id":47,"left_children":[1,3,5,7,9,11,13,15,17,19,21,23,25,27,29,-1,-1,-1,-1,-1,-1,-1,-1,-1,-1,-1,-1,-1,-1,-1,-1],"loss_changes":[1.4770458E11,5.308475E10,5.1184312E10,3.6131344E10,3.6511687E10,1.3429091E10,1.4613594E10,2.2416437E10,8.2383503E9,8.5073244E9,2.60345E10,9.619515E9,3.626073E9,9.057403E9,5.747843E9,0E0,0E0,0E0,0E0,0E0,0E0,0E0,0E0,0E0,0E0,0E0,0E0,0E0,0E0,0E0,0E0],"parents":[2147483647,0,0,1,1,2,2,3,3,4,4,5,5,6,6,7,7,8,8,9,9,10,10,11,11,12,12,13,13,14,14],"right_children":[2,4,6,8,10,12,14,16,18,20,22,24,26,28,30,-1,-1,-1,-1,-1,-1,-1,-1,-1,-1,-1,-1,-1,-1,-1,-1],"split_conditions":[4.20443E4,6.62375E2,-1.6566875E3,5E0,1.24708336E2,3.1383542E3,2.6516666E2,1E1,-1.0280521E3,7.965E2,3.5553293E4,1.146425E4,4.8545835E3,7.6031353E3,7E0,-5.5839105E2,7.290746E2,-9.5061664E2,-1.9398881E3,-7.1687463E2,-3.5566855E3,3.1264027E1,1.743456E3,-9.837878E2,1.3090604E3,4.3635568E2,1.7609658E3,1.6750452E3,3.3532732E3,9.022042E2,4.3524E3],"split_indices":[3,10,13,17,0,2,0,15,12,2,3,8,8,8,16,0,0,0,0,0,0,0,0,0,0,0,0,0,0,0,0],"split_type":[0,0,0,0,0,0,0,0,0,0,0,0,0,0,0,0,0,0,0,0,0,0,0,0,0,0,0,0,0,0,0],"sum_hessian":[5.42E2,4.26E2,1.16E2,3.26E2,1E2,4.6E1,7E1,2.34E2,9.2E1,1.1E1,8.9E1,2.4E1,2.2E1,5.6E1,1.4E1,1.94E2,4E1,4.2E1,5E1,7E0,4E0,4E1,4.9E1,1.9E1,5E0,1E1,1.2E1,4.5E1,1.1E1,2E0,1.2E1],"tree_param":{"num_deleted":"0","num_feature":"19","num_nodes":"31","size_leaf_vector":"1"}},{"base_weights":[8.763869E2,-1.3368321E4,1.8574303E4,-7.4916016E3,-3.5522152E4,9.772627E3,4.300799E4,-1.0655059E4,1.9634182E4,-4.2213176E4,1.4918906E4,-3.809739E3,2.8295441E4,3.0617781E4,7.749062E4,-6.942181E2,8.9327405E2,1.6419075E3,-7.8076706E0,-2.3037817E3,-8.6761115E2,2.0171965E2,2.2777625E3,-7.211127E2,3.0436066E2,4.375511E2,2.2144785E3,9.32436E2,3.2485454E3,1.6104926E3,4.495003E3],"categories":[],"categories_nodes":[],"categories_segments":[],"categories_sizes":[],"default_left":[0,0,0,0,0,0,0,0,0,0,0,0,0,0,0,0,0,0,0,0,0,0,0,0,0,0,0,0,0,0,0],"id":48,"left_children":[1,3,5,7,9,11,13,15,17,19,21,23,25,27,29,-1,-1,-1,-1,-1,-1,-1,-1,-1,-1,-1,-1,-1,-1,-1,-1],"loss_changes":[1.3512268E11,3.840086E10,5.0978423E10,2.0460663E10,2.1554921E10,4.463811E10,2.454397E10,1.9773559E10,6.537902E9,4.481827E9,2.4839058E9,1.090604E10,2.3057117E10,1.8524762E10,6.0948726E9,0E0,0E0,0E0,0E0,0E0,0E0,0E0,0E0,0E0,0E0,0E0,0E0,0E0,0E0,0E0,0E0],"parents":[2147483647,0,0,1,1,2,2,3,3,4,4,5,5,6,6,7,7,8,8,9,9,10,10,11,11,12,12,13,13,14,14],"right_children":[2,4,6,8,10,12,14,16,18,20,22,24,26,28,30,-1,-1,-1,-1,-1,-1,-1,-1,-1,-1,-1,-1,-1,-1,-1,-1],"split_conditions":[2.0715417E3,6E0,5.694167E2,1.09127705E4,1.1E1,5.038229E3,5.5552082E1,8.6978125E2,3E0,4.8758334E2,9.268125E2,-9.5251044E2,-1.6566875E3,4.731146E2,2.3240312E3,-6.942181E2,8.9327405E2,1.6419075E3,-7.8076706E0,-2.3037817E3,-8.6761115E2,2.0171965E2,2.2777625E3,-7.211127E2,3.0436066E2,4.375511E2,2.2144785E3,9.32436E2,3.2485454E3,1.6104926E3,4.495003E3],"split_indices":[2,17,13,4,15,4,7,6,18,7,6,13,13,1,2,0,0,0,0,0,0,0,0,0,0,0,0,0,0,0,0],"split_type":[0,0,0,0,0,0,0,0,0,0,0,0,0,0,0,0,0,0,0,0,0,0,0,0,0,0,0,0,0,0,0],"sum_hessian":[5.34E2,2.96E2,2.38E2,2.35E2,6.1E1,1.76E2,6.2E1,2.11E2,2.4E1,5.4E1,7E0,1.02E2,7.4E1,4.7E1,1.5E1,1.9E2,2.1E1,1.4E1,1E1,4.6E1,8E0,6E0,1E0,4.9E1,5.3E1,3.4E1,4E1,3.6E1,1.1E1,4E0,1.1E1],"tree_param":{"num_deleted":"0","num_feature":"19","num_nodes":"31","size_leaf_vector":"1"}},{"base_weights":[4.1690884E2,-1.1510255E4,1.44332295E4,-1.7914836E4,9.331824E3,1.40737E3,3.0074768E4,-2.2191453E4,1.07654375E4,-3.3232973E4,1.697984E4,-6.0553535E3,1.27793955E4,5.550979E3,3.9577332E4,-1.315058E3,-1.5406728E2,1.9606973E3,-6.8096306E1,-3.9040378E2,-2.3323022E3,5.5382104E0,1.3030175E3,-5.356943E2,1.2917177E3,3.725689E2,1.4709905E3,-5.4976227E2,8.4278937E2,1.4495631E3,3.0033901E3],"categories":[],"categories_nodes":[],"categories_segments":[],"categories_sizes":[],"default_left":[0,0,0,0,0,0,0,0,0,0,0,0,0,0,0,0,0,0,0,0,0,0,0,0,0,0,0,0,0,0,0],"id":49,"left_children":[1,3,5,7,9,11,13,15,17,19,21,23,25,27,29,-1,-1,-1,-1,-1,-1,-1,-1,-1,-1,-1,-1,-1,-1,-1,-1],"loss_changes":[9.1276485E10,3.954519E10,5.1097534E10,2.795882E10,2.3351824E10,1.1788931E10,2.6346742E10,1.5390728E10,1.0403569E10,3.3870705E9,9.187901E9,1.2755762E10,4.657105E9,6.3580457E9,1.6045466E10,0E0,0E0,0E0,0E0,0E0,0E0,0E0,0E0,0E0,0E0,0E0,0E0,0E0,0E0,0E0,0E0],"parents":[2147483647,0,0,1,1,2,2,3,3,4,4,5,5,6,6,7,7,8,8,9,9,10,10,11,11,12,12,13,13,14,14],"right_children":[2,4,6,8,10,12,14,16,18,20,22,24,26,28,30,-1,-1,-1,-1,-1,-1,-1,-1,-1,-1,-1,-1,-1,-1,-1,-1],"split_conditions":[3.8419043E4,1.11791664E2,-1.6705416E3,9.534125E3,3.0353062E4,4.7329478E3,-3.4358334E2,-6.254583E2,1.875E-1,7.8541665E0,-3.6229166E2,1.7870833E2,-1.2025834E3,-7.391042E2,5.6995522E3,-1.315058E3,-1.5406728E2,1.9606973E3,-6.8096306E1,-3.9040378E2,-2.3323022E3,5.5382104E0,1.3030175E3,-5.356943E2,1.2917177E3,3.725689E2,1.4709905E3,-5.4976227E2,8.4278937E2,1.4495631E3,3.0033901E3],"split_indices":[3,13,13,4,3,8,10,9,1,7,10,12,11,13,4,0,0,0,0,0,0,0,0,0,0,0,0,0,0,0,0],"split_type":[0,0,0,0,0,0,0,0,0,0,0,0,0,0,0,0,0,0,0,0,0,0,0,0,0,0,0,0,0,0,0],"sum_hessian":[5.44E2,2.94E2,2.5E2,2.25E2,6.9E1,1.37E2,1.13E2,1.96E2,2.9E1,1E1,5.9E1,8.3E1,5.4E1,3.2E1,8.1E1,1.61E2,3.5E1,8E0,2.1E1,4E0,6E0,2.1E1,3.8E1,7.3E1,1E1,4.2E1,1.2E1,1.3E1,1.9E1,5.5E1,2.6E1],"tree_param":{"num_deleted":"0","num_feature":"19","num_nodes":"31","size_leaf_vector":"1"}},{"base_weights":[1.6411605E3,-1.2957889E4,1.6398691E4,-3.3487652E4,-6.6471006E3,4.794666E3,3.4715793E4,-5.26334E4,-2.4023959E4,-1.3003677E4,1.7898998E4,-4.537944E3,1.620646E4,1.627285E4,5.1149703E4,-1.5223816E3,-3.5887205E3,-1.7031224E3,-3.8157797E2,-8.065829E2,1.6127281E3,-3.3358334E1,1.5032036E3,2.031426E1,-1.0519027E3,6.1539557E2,2.34155E3,-8.112422E2,9.346191E2,1.7611757E3,3.47949E3],"categories":[],"categories_nodes":[],"categories_segments":[],"categories_sizes":[],"default_left":[0,0,0,0,0,0,0,0,0,0,0,0,0,0,0,0,0,0,0,0,0,0,0,0,0,0,0,0,0,0,0],"id":50,"left_children":[1,3,5,7,9,11,13,15,17,19,21,23,25,27,29,-1,-1,-1,-1,-1,-1,-1,-1,-1,-1,-1,-1,-1,-1,-1,-1],"loss_changes":[1.1526061E11,3.4628784E10,5.6372396E10,1.015047E10,3.2530784E10,1.7539842E10,3.038589E10,6.307795E9,6.9804687E9,2.3878857E10,9.731986E9,7.432357E9,8.25856E9,4.2347377E9,1.3407551E10,0E0,0E0,0E0,0E0,0E0,0E0,0E0,0E0,0E0,0E0,0E0,0E0,0E0,0E0,0E0,0E0],"parents":[2147483647,0,0,1,1,2,2,3,3,4,4,5,5,6,6,7,7,8,8,9,9,10,10,11,11,12,12,13,13,14,14],"right_children":[2,4,6,8,10,12,14,16,18,20,22,24,26,28,30,-1,-1,-1,-1,-1,-1,-1,-1,-1,-1,-1,-1,-1,-1,-1,-1],"split_conditions":[3.8057832E4,3.2219697E4,-1.05925E3,2.9662303E4,2.5335417E2,4.4875835E3,-4.144479E2,1.0552083E1,-3.772604E2,1.2249531E4,1.9516667E2,5E0,2.3798958E2,1.2220938E3,5.34875E2,-1.5223816E3,-3.5887205E3,-1.7031224E3,-3.8157797E2,-8.065829E2,1.6127281E3,-3.3358334E1,1.5032036E3,2.031426E1,-1.0519027E3,6.1539557E2,2.34155E3,-8.112422E2,9.346191E2,1.7611757E3,3.47949E3],"split_indices":[3,3,9,3,13,4,13,1,13,4,10,17,0,4,10,0,0,0,0,0,0,0,0,0,0,0,0,0,0,0,0],"split_type":[0,0,0,0,0,0,0,0,0,0,0,0,0,0,0,0,0,0,0,0,0,0,0,0,0,0,0,0,0,0,0],"sum_hessian":[5.33E2,2.68E2,2.65E2,6.2E1,2.06E2,1.63E2,1.02E2,1.9E1,4.3E1,1.64E2,4.2E1,9E1,7.3E1,4.9E1,5.3E1,1E1,9E0,2.6E1,1.7E1,1.54E2,1E1,1.7E1,2.5E1,7E1,2E1,6.6E1,7E0,3E0,4.6E1,3E1,2.3E1],"tree_param":{"num_deleted":"0","num_feature":"19","num_nodes":"31","size_leaf_vector":"1"}},{"base_weights":[2.0209968E3,-3.7266643E3,3.423933E4,-8.277451E3,1.9744406E4,2.4582516E4,5.527356E4,-1.8451068E3,-2.201616E4,3.896392E3,3.6804855E4,1.0276296E4,3.5885184E4,3.069675E4,6.5033426E4,7.796442E2,-3.4699542E2,-2.0496455E3,-8.8536456E2,1.4110701E3,-3.1517438E2,1.3506719E3,3.1588806E3,-5.464865E2,1.2769274E3,1.197378E3,2.98766E3,1.8704143E3,2.4021251E2,3.7024067E3,8.611797E2],"categories":[],"categories_nodes":[],"categories_segments":[],"categories_sizes":[],"default_left":[0,0,0,0,0,0,0,0,0,0,0,0,0,0,0,0,0,0,0,0,0,0,0,0,0,0,0,0,0,0,0],"id":51,"left_children":[1,3,5,7,9,11,13,15,17,19,21,23,25,27,29,-1,-1,-1,-1,-1,-1,-1,-1,-1,-1,-1,-1,-1,-1,-1,-1],"loss_changes":[1.0031E11,4.9296876E10,1.529738E10,3.4071011E10,2.0134656E10,9.009746E9,4.000342E9,2.356279E10,9.331634E9,1.010238E10,7.5895153E9,9.017725E9,7.6867297E9,1.3842872E9,6.051488E9,0E0,0E0,0E0,0E0,0E0,0E0,0E0,0E0,0E0,0E0,0E0,0E0,0E0,0E0,0E0,0E0],"parents":[2147483647,0,0,1,1,2,2,3,3,4,4,5,5,6,6,7,7,8,8,9,9,10,10,11,11,12,12,13,13,14,14],"right_children":[2,4,6,8,10,12,14,16,18,20,22,24,26,28,30,-1,-1,-1,-1,-1,-1,-1,-1,-1,-1,-1,-1,-1,-1,-1,-1],"split_conditions":[4.6939897E3,7.6031353E3,-1.04541664E2,5E0,1.8362084E3,2.6520834E1,6.716625E3,5E0,2.0128438E3,-1.588625E3,-3.963021E2,4.059375E1,-6.305E2,7.5355206E2,-8.895833E2,7.796442E2,-3.4699542E2,-2.0496455E3,-8.8536456E2,1.4110701E3,-3.1517438E2,1.3506719E3,3.1588806E3,-5.464865E2,1.2769274E3,1.197378E3,2.98766E3,1.8704143E3,2.4021251E2,3.7024067E3,8.611797E2],"split_indices":[2,8,9,17,2,7,2,15,4,12,13,1,13,6,11,0,0,0,0,0,0,0,0,0,0,0,0,0,0,0,0],"split_type":[0,0,0,0,0,0,0,0,0,0,0,0,0,0,0,0,0,0,0,0,0,0,0,0,0,0,0,0,0,0,0],"sum_hessian":[5.4E2,4.59E2,8.1E1,3.85E2,7.4E1,5.7E1,2.4E1,2.63E2,1.22E2,3.9E1,3.5E1,2.6E1,3.1E1,8E0,1.6E1,5.9E1,2.04E2,2.1E1,1.01E2,1.1E1,2.8E1,2.7E1,8E0,1.1E1,1.5E1,2.2E1,9E0,6E0,2E0,1.3E1,3E0],"tree_param":{"num_deleted":"0","num_feature":"19","num_nodes":"31","size_leaf_vector":"1"}},{"base_weights":[3.0786545E2,-7.770987E3,2.3952477E4,-2.651924E4,-2.9424624E3,1.7116475E4,4.9952754E4,-2.9828043E4,7.815703E3,-5.6442075E3,3.219069E4,3.6346824E4,9.110302E3,2.9624236E4,7.8676445E4,-1.5922589E3,2.3904375E2,-1.5036406E2,4.8957275E2,-4.693941E2,8.387487E2,2.391523E3,9.360047E2,2.3881775E3,9.12825E2,7.643489E1,1.271271E3,9.4037744E2,2.4061511E3,1.7906E3,4.5137056E3],"categories":[],"categories_nodes":[],"categories_segments":[],"categories_sizes":[],